{"learner":{"attributes":{"scikit_learn":"{\"_estimator_type\": \"regressor\"}"},"feature_names":[],"feature_types":[],"gradient_booster":{"model":{"gbtree_model_param":{"num_parallel_tree":"1","num_trees":"100"},"iteration_indptr":[0,1,2,3,4,5,6,7,8,9,10,11,12,13,14,15,16,17,18,19,20,21,22,23,24,25,26,27,28,29,30,31,32,33,34,35,36,37,38,39,40,41,42,43,44,45,46,47,48,49,50,51,52,53,54,55,56,57,58,59,60,61,62,63,64,65,66,67,68,69,70,71,72,73,74,75,76,77,78,79,80,81,82,83,84,85,86,87,88,89,90,91,92,93,94,95,96,97,98,99,100],"tree_info":[0,0,0,0,0,0,0,0,0,0,0,0,0,0,0,0,0,0,0,0,0,0,0,0,0,0,0,0,0,0,0,0,0,0,0,0,0,0,0,0,0,0,0,0,0,0,0,0,0,0,0,0,0,0,0,0,0,0,0,0,0,0,0,0,0,0,0,0,0,0,0,0,0,0,0,0,0,0,0,0,0,0,0,0,0,0,0,0,0,0,0,0,0,0,0,0,0,0,0,0],"trees":[{"base_weights":[-9.9998885E-1],"categories":[],"categories_nodes":[],"categories_segments":[],"categories_sizes":[],"default_left":[0],"id":0,"left_children":[-1],"loss_changes":[0E0],"parents":[2147483647],"right_children":[-1],"split_conditions":[-9.9998884E-2],"split_indices":[0],"split_type":[0],"sum_hessian":[8.978911E4],"tree_param":{"num_deleted":"0","num_feature":"3","num_nodes":"1","size_leaf_vector":"1"}},{"base_weights":[-9.9998885E-1],"categories":[],"categories_nodes":[],"categories_segments":[],"categories_sizes":[],"default_left":[0],"id":1,"left_children":[-1],"loss_changes":[0E0],"parents":[2147483647],"right_children":[-1],"split_conditions":[-9.9998884E-2],"split_indices":[0],"split_type":[0],"sum_hessian":[8.978911E4],"tree_param":{"num_deleted":"0","num_feature":"3","num_nodes":"1","size_leaf_vector":"1"}},{"base_weights":[-9.9998885E-1],"categories":[],"categories_nodes":[],"categories_segments":[],"categories_sizes":[],"default_left":[0],"id":2,"left_children":[-1],"loss_changes":[0E0],"parents":[2147483647],"right_children":[-1],"split_conditions":[-9.9998884E-2],"split_indices":[0],"split_type":[0],"sum_hessian":[8.978911E4],"tree_param":{"num_deleted":"0","num_feature":"3","num_nodes":"1","size_leaf_vector":"1"}},{"base_weights":[-9.9998885E-1],"categories":[],"categories_nodes":[],"categories_segments":[],"categories_sizes":[],"default_left":[0],"id":3,"left_children":[-1],"loss_changes":[0E0],"parents":[2147483647],"right_children":[-1],"split_conditions":[-9.9998884E-2],"split_indices":[0],"split_type":[0],"sum_hessian":[8.978911E4],"tree_param":{"num_deleted":"0","num_feature":"3","num_nodes":"1","size_leaf_vector":"1"}},{"base_weights":[-9.9998885E-1],"categories":[],"categories_nodes":[],"categories_segments":[],"categories_sizes":[],"default_left":[0],"id":4,"left_children":[-1],"loss_changes":[0E0],"parents":[2147483647],"right_children":[-1],"split_conditions":[-9.9998884E-2],"split_indices":[0],"split_type":[0],"sum_hessian":[8.978911E4],"tree_param":{"num_deleted":"0","num_feature":"3","num_nodes":"1","size_leaf_vector":"1"}},{"base_weights":[-2.2123005E-2,-1.6731572E-1,2.1039357E-2,7.5588964E-2,-2.2324099E-1,8.93247E-2,-6.949585E-2,1.6164942E-2,-7.034045E-2,-7.480364E-2,-1.7957183E-2,1.09918E-2,-6.156506E-2,1.9082213E-2,-1.311632E-2],"categories":[],"categories_nodes":[],"categories_segments":[],"categories_sizes":[],"default_left":[0,0,0,0,0,0,0,0,0,0,0,0,0,0,0],"id":5,"left_children":[1,3,5,7,9,11,13,-1,-1,-1,-1,-1,-1,-1,-1],"loss_changes":[5.627056E2,2.7953027E2,4.279104E2,2.5831854E2,3.8316846E2,5.728863E2,4.7776318E2,0E0,0E0,0E0,0E0,0E0,0E0,0E0,0E0],"parents":[2147483647,0,0,1,1,2,2,3,3,4,4,5,5,6,6],"right_children":[2,4,6,8,10,12,14,-1,-1,-1,-1,-1,-1,-1,-1],"split_conditions":[2.6319152E-1,2.277991E-1,2.846427E-1,3.1031615E-1,2.3345469E-1,3.664031E-1,2.5198656E-1,1.6164942E-2,-7.034045E-2,-7.480364E-2,-1.7957183E-2,1.09918E-2,-6.156506E-2,1.9082213E-2,-1.311632E-2],"split_indices":[2,0,0,1,0,1,1,0,0,0,0,0,0,0,0],"split_type":[0,0,0,0,0,0,0,0,0,0,0,0,0,0,0],"sum_hessian":[8.978911E4,2.0574895E4,6.921422E4,3.8504736E3,1.6724422E4,3.945538E4,2.975884E4,3.4681204E3,3.823533E2,1.2835226E3,1.5440899E4,3.8336363E4,1.1190139E3,5.6990776E3,2.4059762E4],"tree_param":{"num_deleted":"0","num_feature":"3","num_nodes":"15","size_leaf_vector":"1"}},{"base_weights":[3.1400036E-2,-2.3480533E-1,4.9395368E-1,5.5296034E-1,-5.849211E-1,-3.7381637E-1,7.687799E-1,-5.9081554E-2,8.7480076E-2,-6.311828E-2,9.991072E-2,6.9896095E-2,-7.860604E-2,7.851751E-2,3.3668552E-3],"categories":[],"categories_nodes":[],"categories_segments":[],"categories_sizes":[],"default_left":[0,0,0,0,0,0,0,0,0,0,0,0,0,0,0],"id":6,"left_children":[1,3,5,7,9,11,13,-1,-1,-1,-1,-1,-1,-1,-1],"loss_changes":[1.10563545E4,1.5719168E4,7.822479E3,6.455882E3,2.8919824E3,3.489798E3,3.0020312E2,0E0,0E0,0E0,0E0,0E0,0E0,0E0,0E0],"parents":[2147483647,0,0,1,1,2,2,3,3,4,4,5,5,6,6],"right_children":[2,4,6,8,10,12,14,-1,-1,-1,-1,-1,-1,-1,-1],"split_conditions":[2.846427E-1,2.6319152E-1,2.5198656E-1,2.277991E-1,3.664031E-1,2.6193097E-1,5.171158E-1,-5.9081554E-2,8.7480076E-2,-6.311828E-2,9.991072E-2,6.9896095E-2,-7.860604E-2,7.851751E-2,3.3668552E-3],"split_indices":[0,2,1,0,1,2,2,0,0,0,0,0,0,0,0],"split_type":[0,0,0,0,0,0,0,0,0,0,0,0,0,0,0],"sum_hessian":[8.978911E4,5.699073E4,3.2798383E4,1.7535354E4,3.945538E4,7.888837E3,2.4909545E4,3.8504736E3,1.368488E4,3.8336363E4,1.1190139E3,2.1897595E3,5.6990776E3,2.436604E4,5.43505E2],"tree_param":{"num_deleted":"0","num_feature":"3","num_nodes":"15","size_leaf_vector":"1"}},{"base_weights":[7.493518E-2,4.8577872E-1,-6.389429E-1,-5.5064374E-1,9.464035E-1,4.4478968E-1,-9.821644E-1,9.9974036E-2,-9.869119E-2,9.9997394E-2,-8.881228E-2,-9.995436E-2,9.998246E-2,-9.960797E-2,4.9822903E-3],"categories":[],"categories_nodes":[],"categories_segments":[],"categories_sizes":[],"default_left":[0,0,0,0,0,0,0,0,0,0,0,0,0,0,0],"id":7,"left_children":[1,3,5,7,9,11,13,-1,-1,-1,-1,-1,-1,-1,-1],"loss_changes":[2.6335047E4,2.7208479E4,1.2200506E4,1.1862281E4,3.8785195E3,6.3259287E3,3.5777148E2,0E0,0E0,0E0,0E0,0E0,0E0,0E0,0E0],"parents":[2147483647,0,0,1,1,2,2,3,3,4,4,5,5,6,6],"right_children":[2,4,6,8,10,12,14,-1,-1,-1,-1,-1,-1,-1,-1],"split_conditions":[2.846427E-1,2.6319152E-1,2.5198656E-1,2.277991E-1,3.664031E-1,2.6193097E-1,5.313314E-1,9.9974036E-2,-9.869119E-2,9.9997394E-2,-8.881228E-2,-9.995436E-2,9.998246E-2,-9.960797E-2,4.9822903E-3],"split_indices":[0,2,1,0,1,2,2,0,0,0,0,0,0,0,0],"split_type":[0,0,0,0,0,0,0,0,0,0,0,0,0,0,0],"sum_hessian":[8.978911E4,5.699073E4,3.2798383E4,1.7535354E4,3.945538E4,7.888837E3,2.4909545E4,3.8504736E3,1.368488E4,3.8336363E4,1.1190139E3,2.1897595E3,5.6990776E3,2.457817E4,3.3137476E2],"tree_param":{"num_deleted":"0","num_feature":"3","num_nodes":"15","size_leaf_vector":"1"}},{"base_weights":[-6.901139E-2,-4.7893298E-1,6.4326453E-1,5.324558E-1,-9.284317E-1,-4.1638702E-1,9.7885877E-1,-8.292517E-2,9.15628E-2,-9.847199E-2,9.991072E-2,9.995436E-2,-9.605107E-2,9.913819E-2,4.9822903E-3],"categories":[],"categories_nodes":[],"categories_segments":[],"categories_sizes":[],"default_left":[0,0,0,0,0,0,0,0,0,0,0,0,0,0,0],"id":8,"left_children":[1,3,5,7,9,11,13,-1,-1,-1,-1,-1,-1,-1,-1],"loss_changes":[2.621698E4,2.5909957E4,1.1664291E4,9.150674E3,4.281914E3,6.0796157E3,2.8977344E2,0E0,0E0,0E0,0E0,0E0,0E0,0E0,0E0],"parents":[2147483647,0,0,1,1,2,2,3,3,4,4,5,5,6,6],"right_children":[2,4,6,8,10,12,14,-1,-1,-1,-1,-1,-1,-1,-1],"split_conditions":[2.846427E-1,2.6319152E-1,2.5198656E-1,2.277991E-1,3.664031E-1,2.6193097E-1,5.313314E-1,-8.292517E-2,9.15628E-2,-9.847199E-2,9.991072E-2,9.995436E-2,-9.605107E-2,9.913819E-2,4.9822903E-3],"split_indices":[0,2,1,0,1,2,2,0,0,0,0,0,0,0,0],"split_type":[0,0,0,0,0,0,0,0,0,0,0,0,0,0,0],"sum_hessian":[8.978911E4,5.699073E4,3.2798383E4,1.7535354E4,3.945538E4,7.888837E3,2.4909545E4,3.8504736E3,1.368488E4,3.8336363E4,1.1190139E3,2.1897595E3,5.6990776E3,2.457817E4,3.3137476E2],"tree_param":{"num_deleted":"0","num_feature":"3","num_nodes":"15","size_leaf_vector":"1"}},{"base_weights":[6.899341E-2,4.7641748E-1,-6.389429E-1,-5.8106697E-1,9.464035E-1,4.4478968E-1,-9.821644E-1,8.612187E-2,-9.869119E-2,9.9997394E-2,-8.881228E-2,-9.995436E-2,9.998246E-2,-9.960797E-2,4.9822903E-3],"categories":[],"categories_nodes":[],"categories_segments":[],"categories_sizes":[],"default_left":[0,0,0,0,0,0,0,0,0,0,0,0,0,0,0],"id":9,"left_children":[1,3,5,7,9,11,13,-1,-1,-1,-1,-1,-1,-1,-1],"loss_changes":[2.5898494E4,2.8325602E4,1.2200506E4,1.0265654E4,3.8785195E3,6.3259287E3,3.5777148E2,0E0,0E0,0E0,0E0,0E0,0E0,0E0,0E0],"parents":[2147483647,0,0,1,1,2,2,3,3,4,4,5,5,6,6],"right_children":[2,4,6,8,10,12,14,-1,-1,-1,-1,-1,-1,-1,-1],"split_conditions":[2.846427E-1,2.6319152E-1,2.5198656E-1,2.277991E-1,3.664031E-1,2.6193097E-1,5.313314E-1,8.612187E-2,-9.869119E-2,9.9997394E-2,-8.881228E-2,-9.995436E-2,9.998246E-2,-9.960797E-2,4.9822903E-3],"split_indices":[0,2,1,0,1,2,2,0,0,0,0,0,0,0,0],"split_type":[0,0,0,0,0,0,0,0,0,0,0,0,0,0,0],"sum_hessian":[8.978911E4,5.699073E4,3.2798383E4,1.7535354E4,3.945538E4,7.888837E3,2.4909545E4,3.8504736E3,1.368488E4,3.8336363E4,1.1190139E3,2.1897595E3,5.6990776E3,2.457817E4,3.3137476E2],"tree_param":{"num_deleted":"0","num_feature":"3","num_nodes":"15","size_leaf_vector":"1"}},{"base_weights":[-6.3865766E-2,-4.708261E-1,6.4326453E-1,5.7775766E-1,-9.368563E-1,-4.1638702E-1,9.7885877E-1,-8.292517E-2,9.736754E-2,-9.902971E-2,8.932265E-2,9.995436E-2,-9.605107E-2,9.913819E-2,4.9822903E-3],"categories":[],"categories_nodes":[],"categories_segments":[],"categories_sizes":[],"default_left":[0,0,0,0,0,0,0,0,0,0,0,0,0,0,0],"id":10,"left_children":[1,3,5,7,9,11,13,-1,-1,-1,-1,-1,-1,-1,-1],"loss_changes":[2.5839559E4,2.785079E4,1.1664291E4,9.769607E3,3.8597656E3,6.0796157E3,2.8977344E2,0E0,0E0,0E0,0E0,0E0,0E0,0E0,0E0],"parents":[2147483647,0,0,1,1,2,2,3,3,4,4,5,5,6,6],"right_children":[2,4,6,8,10,12,14,-1,-1,-1,-1,-1,-1,-1,-1],"split_conditions":[2.846427E-1,2.6319152E-1,2.5198656E-1,2.277991E-1,3.664031E-1,2.6193097E-1,5.313314E-1,-8.292517E-2,9.736754E-2,-9.902971E-2,8.932265E-2,9.995436E-2,-9.605107E-2,9.913819E-2,4.9822903E-3],"split_indices":[0,2,1,0,1,2,2,0,0,0,0,0,0,0,0],"split_type":[0,0,0,0,0,0,0,0,0,0,0,0,0,0,0],"sum_hessian":[8.978911E4,5.699073E4,3.2798383E4,1.7535354E4,3.945538E4,7.888837E3,2.4909545E4,3.8504736E3,1.368488E4,3.8336363E4,1.1190139E3,2.1897595E3,5.6990776E3,2.457817E4,3.3137476E2],"tree_param":{"num_deleted":"0","num_feature":"3","num_nodes":"15","size_leaf_vector":"1"}},{"base_weights":[6.899341E-2,4.7641748E-1,-6.389429E-1,-5.8106697E-1,9.464035E-1,4.4478968E-1,-9.821644E-1,8.612187E-2,-9.869119E-2,9.9997394E-2,-8.881228E-2,-9.995436E-2,9.998246E-2,-9.960797E-2,4.9822903E-3],"categories":[],"categories_nodes":[],"categories_segments":[],"categories_sizes":[],"default_left":[0,0,0,0,0,0,0,0,0,0,0,0,0,0,0],"id":11,"left_children":[1,3,5,7,9,11,13,-1,-1,-1,-1,-1,-1,-1,-1],"loss_changes":[2.5898494E4,2.8325602E4,1.2200506E4,1.0265654E4,3.8785195E3,6.3259287E3,3.5777148E2,0E0,0E0,0E0,0E0,0E0,0E0,0E0,0E0],"parents":[2147483647,0,0,1,1,2,2,3,3,4,4,5,5,6,6],"right_children":[2,4,6,8,10,12,14,-1,-1,-1,-1,-1,-1,-1,-1],"split_conditions":[2.846427E-1,2.6319152E-1,2.5198656E-1,2.277991E-1,3.664031E-1,2.6193097E-1,5.313314E-1,8.612187E-2,-9.869119E-2,9.9997394E-2,-8.881228E-2,-9.995436E-2,9.998246E-2,-9.960797E-2,4.9822903E-3],"split_indices":[0,2,1,0,1,2,2,0,0,0,0,0,0,0,0],"split_type":[0,0,0,0,0,0,0,0,0,0,0,0,0,0,0],"sum_hessian":[8.978911E4,5.699073E4,3.2798383E4,1.7535354E4,3.945538E4,7.888837E3,2.4909545E4,3.8504736E3,1.368488E4,3.8336363E4,1.1190139E3,2.1897595E3,5.6990776E3,2.457817E4,3.3137476E2],"tree_param":{"num_deleted":"0","num_feature":"3","num_nodes":"15","size_leaf_vector":"1"}},{"base_weights":[-6.4128496E-2,-4.694053E-1,6.400766E-1,5.8237517E-1,-9.368563E-1,-4.2964002E-1,9.7885877E-1,-8.292517E-2,9.79592E-2,-9.902971E-2,8.932265E-2,9.995436E-2,-9.78855E-2,9.913819E-2,4.9822903E-3],"categories":[],"categories_nodes":[],"categories_segments":[],"categories_sizes":[],"default_left":[0,0,0,0,0,0,0,0,0,0,0,0,0,0,0],"id":12,"left_children":[1,3,5,7,9,11,13,-1,-1,-1,-1,-1,-1,-1,-1],"loss_changes":[2.5626215E4,2.8020863E4,1.1886945E4,9.833831E3,3.8597656E3,6.19394E3,2.8977344E2,0E0,0E0,0E0,0E0,0E0,0E0,0E0,0E0],"parents":[2147483647,0,0,1,1,2,2,3,3,4,4,5,5,6,6],"right_children":[2,4,6,8,10,12,14,-1,-1,-1,-1,-1,-1,-1,-1],"split_conditions":[2.846427E-1,2.6319152E-1,2.5198656E-1,2.277991E-1,3.664031E-1,2.6193097E-1,5.313314E-1,-8.292517E-2,9.79592E-2,-9.902971E-2,8.932265E-2,9.995436E-2,-9.78855E-2,9.913819E-2,4.9822903E-3],"split_indices":[0,2,1,0,1,2,2,0,0,0,0,0,0,0,0],"split_type":[0,0,0,0,0,0,0,0,0,0,0,0,0,0,0],"sum_hessian":[8.978911E4,5.699073E4,3.2798383E4,1.7535354E4,3.945538E4,7.888837E3,2.4909545E4,3.8504736E3,1.368488E4,3.8336363E4,1.1190139E3,2.1897595E3,5.6990776E3,2.457817E4,3.3137476E2],"tree_param":{"num_deleted":"0","num_feature":"3","num_nodes":"15","size_leaf_vector":"1"}},{"base_weights":[6.383747E-2,4.7439933E-1,-6.4955086E-1,-5.876258E-1,9.464035E-1,4.4478968E-1,-9.961318E-1,8.313554E-2,-9.869119E-2,9.9997394E-2,-8.881228E-2,-9.995436E-2,9.998246E-2,-9.9995896E-2,-8.2303174E-2],"categories":[],"categories_nodes":[],"categories_segments":[],"categories_sizes":[],"default_left":[0,0,0,0,0,0,0,0,0,0,0,0,0,0,0],"id":13,"left_children":[1,3,5,7,9,11,13,-1,-1,-1,-1,-1,-1,-1,-1],"loss_changes":[2.6298938E4,2.8569387E4,1.2440513E4,9.936557E3,3.8785195E3,6.3259287E3,1.56796875E1,0E0,0E0,0E0,0E0,0E0,0E0,0E0,0E0],"parents":[2147483647,0,0,1,1,2,2,3,3,4,4,5,5,6,6],"right_children":[2,4,6,8,10,12,14,-1,-1,-1,-1,-1,-1,-1,-1],"split_conditions":[2.846427E-1,2.6319152E-1,2.5198656E-1,2.277991E-1,3.664031E-1,2.6193097E-1,5.171158E-1,8.313554E-2,-9.869119E-2,9.9997394E-2,-8.881228E-2,-9.995436E-2,9.998246E-2,-9.9995896E-2,-8.2303174E-2],"split_indices":[0,2,1,0,1,2,2,0,0,0,0,0,0,0,0],"split_type":[0,0,0,0,0,0,0,0,0,0,0,0,0,0,0],"sum_hessian":[8.978911E4,5.699073E4,3.2798383E4,1.7535354E4,3.945538E4,7.888837E3,2.4909545E4,3.8504736E3,1.368488E4,3.8336363E4,1.1190139E3,2.1897595E3,5.6990776E3,2.436604E4,5.43505E2],"tree_param":{"num_deleted":"0","num_feature":"3","num_nodes":"15","size_leaf_vector":"1"}},{"base_weights":[-6.062237E-2,-4.694053E-1,6.496748E-1,5.8237517E-1,-9.368563E-1,-4.2964002E-1,9.9149656E-1,-8.292517E-2,9.79592E-2,-9.902971E-2,8.932265E-2,9.995436E-2,-9.78855E-2,9.999522E-2,9.46916E-2],"categories":[],"categories_nodes":[],"categories_segments":[],"categories_sizes":[],"default_left":[0,0,0,0,0,0,0,0,0,0,0,0,0,0,0],"id":14,"left_children":[1,3,5,7,9,11,13,-1,-1,-1,-1,-1,-1,-1,-1],"loss_changes":[2.6071521E4,2.8020863E4,1.2101211E4,9.833831E3,3.8597656E3,6.19394E3,8.443359E0,0E0,0E0,0E0,0E0,0E0,0E0,0E0,0E0],"parents":[2147483647,0,0,1,1,2,2,3,3,4,4,5,5,6,6],"right_children":[2,4,6,8,10,12,14,-1,-1,-1,-1,-1,-1,-1,-1],"split_conditions":[2.846427E-1,2.6319152E-1,2.5198656E-1,2.277991E-1,3.664031E-1,2.6193097E-1,3.3267784E-1,-8.292517E-2,9.79592E-2,-9.902971E-2,8.932265E-2,9.995436E-2,-9.78855E-2,9.999522E-2,9.46916E-2],"split_indices":[0,2,1,0,1,2,0,0,0,0,0,0,0,0,0],"split_type":[0,0,0,0,0,0,0,0,0,0,0,0,0,0,0],"sum_hessian":[8.978911E4,5.699073E4,3.2798383E4,1.7535354E4,3.945538E4,7.888837E3,2.4909545E4,3.8504736E3,1.368488E4,3.8336363E4,1.1190139E3,2.1897595E3,5.6990776E3,2.0920178E4,3.9893665E3],"tree_param":{"num_deleted":"0","num_feature":"3","num_nodes":"15","size_leaf_vector":"1"}},{"base_weights":[6.412568E-2,4.748534E-1,-6.4955086E-1,-5.8615017E-1,9.464035E-1,4.4478968E-1,-9.961318E-1,8.0054834E-2,-9.7635135E-2,9.9997394E-2,-8.881228E-2,-9.995436E-2,9.998246E-2,-9.9995896E-2,-8.2303174E-2],"categories":[],"categories_nodes":[],"categories_segments":[],"categories_sizes":[],"default_left":[0,0,0,0,0,0,0,0,0,0,0,0,0,0,0],"id":15,"left_children":[1,3,5,7,9,11,13,-1,-1,-1,-1,-1,-1,-1,-1],"loss_changes":[2.632019E4,2.8514445E4,1.2440513E4,9.489551E3,3.8785195E3,6.3259287E3,1.56796875E1,0E0,0E0,0E0,0E0,0E0,0E0,0E0,0E0],"parents":[2147483647,0,0,1,1,2,2,3,3,4,4,5,5,6,6],"right_children":[2,4,6,8,10,12,14,-1,-1,-1,-1,-1,-1,-1,-1],"split_conditions":[2.846427E-1,2.6319152E-1,2.5198656E-1,2.277991E-1,3.664031E-1,2.6193097E-1,5.171158E-1,8.0054834E-2,-9.7635135E-2,9.9997394E-2,-8.881228E-2,-9.995436E-2,9.998246E-2,-9.9995896E-2,-8.2303174E-2],"split_indices":[0,2,1,0,1,2,2,0,0,0,0,0,0,0,0],"split_type":[0,0,0,0,0,0,0,0,0,0,0,0,0,0,0],"sum_hessian":[8.978911E4,5.699073E4,3.2798383E4,1.7535354E4,3.945538E4,7.888837E3,2.4909545E4,3.8504736E3,1.368488E4,3.8336363E4,1.1190139E3,2.1897595E3,5.6990776E3,2.436604E4,5.43505E2],"tree_param":{"num_deleted":"0","num_feature":"3","num_nodes":"15","size_leaf_vector":"1"}},{"base_weights":[-6.3382104E-2,-4.737532E-1,6.496748E-1,5.8237517E-1,-9.431366E-1,-4.2964002E-1,9.9149656E-1,-8.292517E-2,9.79592E-2,-9.967607E-2,8.932265E-2,9.995436E-2,-9.78855E-2,9.999522E-2,9.46916E-2],"categories":[],"categories_nodes":[],"categories_segments":[],"categories_sizes":[],"default_left":[0,0,0,0,0,0,0,0,0,0,0,0,0,0,0],"id":16,"left_children":[1,3,5,7,9,11,13,-1,-1,-1,-1,-1,-1,-1,-1],"loss_changes":[2.6274504E4,2.8253008E4,1.2101211E4,9.833831E3,3.8862969E3,6.19394E3,8.443359E0,0E0,0E0,0E0,0E0,0E0,0E0,0E0,0E0],"parents":[2147483647,0,0,1,1,2,2,3,3,4,4,5,5,6,6],"right_children":[2,4,6,8,10,12,14,-1,-1,-1,-1,-1,-1,-1,-1],"split_conditions":[2.846427E-1,2.6319152E-1,2.5198656E-1,2.277991E-1,3.664031E-1,2.6193097E-1,3.3267784E-1,-8.292517E-2,9.79592E-2,-9.967607E-2,8.932265E-2,9.995436E-2,-9.78855E-2,9.999522E-2,9.46916E-2],"split_indices":[0,2,1,0,1,2,0,0,0,0,0,0,0,0,0],"split_type":[0,0,0,0,0,0,0,0,0,0,0,0,0,0,0],"sum_hessian":[8.978911E4,5.699073E4,3.2798383E4,1.7535354E4,3.945538E4,7.888837E3,2.4909545E4,3.8504736E3,1.368488E4,3.8336363E4,1.1190139E3,2.1897595E3,5.6990776E3,2.0920178E4,3.9893665E3],"tree_param":{"num_deleted":"0","num_feature":"3","num_nodes":"15","size_leaf_vector":"1"}},{"base_weights":[6.4056404E-2,4.7641748E-1,-6.5245825E-1,-5.8106697E-1,9.464035E-1,4.4478968E-1,-9.999599E-2,8.612187E-2,-9.869119E-2,9.9997394E-2,-8.881228E-2,-9.995436E-2,9.998246E-2],"categories":[],"categories_nodes":[],"categories_segments":[],"categories_sizes":[],"default_left":[0,0,0,0,0,0,0,0,0,0,0,0,0],"id":17,"left_children":[1,3,5,7,9,11,-1,-1,-1,-1,-1,-1,-1],"loss_changes":[2.6529943E4,2.8325602E4,1.2506698E4,1.0265654E4,3.8785195E3,6.3259287E3,0E0,0E0,0E0,0E0,0E0,0E0,0E0],"parents":[2147483647,0,0,1,1,2,2,3,3,4,4,5,5],"right_children":[2,4,6,8,10,12,-1,-1,-1,-1,-1,-1,-1],"split_conditions":[2.846427E-1,2.6319152E-1,2.5198656E-1,2.277991E-1,3.664031E-1,2.6193097E-1,-9.999599E-2,8.612187E-2,-9.869119E-2,9.9997394E-2,-8.881228E-2,-9.995436E-2,9.998246E-2],"split_indices":[0,2,1,0,1,2,0,0,0,0,0,0,0],"split_type":[0,0,0,0,0,0,0,0,0,0,0,0,0],"sum_hessian":[8.978911E4,5.699073E4,3.2798383E4,1.7535354E4,3.945538E4,7.888837E3,2.4909545E4,3.8504736E3,1.368488E4,3.8336363E4,1.1190139E3,2.1897595E3,5.6990776E3],"tree_param":{"num_deleted":"0","num_feature":"3","num_nodes":"13","size_leaf_vector":"1"}},{"base_weights":[-6.1626542E-2,-4.7098735E-1,6.496748E-1,5.91364E-1,-9.431366E-1,-4.2964002E-1,9.9149656E-1,-8.292517E-2,9.911098E-2,-9.967607E-2,8.932265E-2,9.995436E-2,-9.78855E-2,9.999522E-2,9.46916E-2],"categories":[],"categories_nodes":[],"categories_segments":[],"categories_sizes":[],"default_left":[0,0,0,0,0,0,0,0,0,0,0,0,0,0,0],"id":18,"left_children":[1,3,5,7,9,11,13,-1,-1,-1,-1,-1,-1,-1,-1],"loss_changes":[2.614529E4,2.8586947E4,1.2101211E4,9.959458E3,3.8862969E3,6.19394E3,8.443359E0,0E0,0E0,0E0,0E0,0E0,0E0,0E0,0E0],"parents":[2147483647,0,0,1,1,2,2,3,3,4,4,5,5,6,6],"right_children":[2,4,6,8,10,12,14,-1,-1,-1,-1,-1,-1,-1,-1],"split_conditions":[2.846427E-1,2.6319152E-1,2.5198656E-1,2.277991E-1,3.664031E-1,2.6193097E-1,3.3267784E-1,-8.292517E-2,9.911098E-2,-9.967607E-2,8.932265E-2,9.995436E-2,-9.78855E-2,9.999522E-2,9.46916E-2],"split_indices":[0,2,1,0,1,2,0,0,0,0,0,0,0,0,0],"split_type":[0,0,0,0,0,0,0,0,0,0,0,0,0,0,0],"sum_hessian":[8.978911E4,5.699073E4,3.2798383E4,1.7535354E4,3.945538E4,7.888837E3,2.4909545E4,3.8504736E3,1.368488E4,3.8336363E4,1.1190139E3,2.1897595E3,5.6990776E3,2.0920178E4,3.9893665E3],"tree_param":{"num_deleted":"0","num_feature":"3","num_nodes":"15","size_leaf_vector":"1"}},{"base_weights":[6.2516026E-2,4.7231743E-1,-6.4955086E-1,-5.943919E-1,9.464035E-1,4.4478968E-1,-9.961318E-1,8.0054834E-2,-9.869119E-2,9.9997394E-2,-8.881228E-2,-9.995436E-2,9.998246E-2,-9.9995896E-2,-8.2303174E-2],"categories":[],"categories_nodes":[],"categories_segments":[],"categories_sizes":[],"default_left":[0,0,0,0,0,0,0,0,0,0,0,0,0,0,0],"id":19,"left_children":[1,3,5,7,9,11,13,-1,-1,-1,-1,-1,-1,-1,-1],"loss_changes":[2.62016E4,2.8821965E4,1.2440513E4,9.602679E3,3.8785195E3,6.3259287E3,1.56796875E1,0E0,0E0,0E0,0E0,0E0,0E0,0E0,0E0],"parents":[2147483647,0,0,1,1,2,2,3,3,4,4,5,5,6,6],"right_children":[2,4,6,8,10,12,14,-1,-1,-1,-1,-1,-1,-1,-1],"split_conditions":[2.846427E-1,2.6319152E-1,2.5198656E-1,2.277991E-1,3.664031E-1,2.6193097E-1,5.171158E-1,8.0054834E-2,-9.869119E-2,9.9997394E-2,-8.881228E-2,-9.995436E-2,9.998246E-2,-9.9995896E-2,-8.2303174E-2],"split_indices":[0,2,1,0,1,2,2,0,0,0,0,0,0,0,0],"split_type":[0,0,0,0,0,0,0,0,0,0,0,0,0,0,0],"sum_hessian":[8.978911E4,5.699073E4,3.2798383E4,1.7535354E4,3.945538E4,7.888837E3,2.4909545E4,3.8504736E3,1.368488E4,3.8336363E4,1.1190139E3,2.1897595E3,5.6990776E3,2.436604E4,5.43505E2],"tree_param":{"num_deleted":"0","num_feature":"3","num_nodes":"15","size_leaf_vector":"1"}},{"base_weights":[-6.608522E-2,-4.7591466E-1,6.4603055E-1,5.8237517E-1,-9.462586E-1,-4.4478968E-1,9.9149656E-1,-8.292517E-2,9.79592E-2,-9.9997394E-2,8.932265E-2,9.995436E-2,-9.998246E-2,9.999522E-2,9.46916E-2],"categories":[],"categories_nodes":[],"categories_segments":[],"categories_sizes":[],"default_left":[0,0,0,0,0,0,0,0,0,0,0,0,0,0,0],"id":20,"left_children":[1,3,5,7,9,11,13,-1,-1,-1,-1,-1,-1,-1,-1],"loss_changes":[2.6205191E4,2.836877E4,1.23606045E4,9.833831E3,3.8995156E3,6.3259287E3,8.443359E0,0E0,0E0,0E0,0E0,0E0,0E0,0E0,0E0],"parents":[2147483647,0,0,1,1,2,2,3,3,4,4,5,5,6,6],"right_children":[2,4,6,8,10,12,14,-1,-1,-1,-1,-1,-1,-1,-1],"split_conditions":[2.846427E-1,2.6319152E-1,2.5198656E-1,2.277991E-1,3.664031E-1,2.6193097E-1,3.3267784E-1,-8.292517E-2,9.79592E-2,-9.9997394E-2,8.932265E-2,9.995436E-2,-9.998246E-2,9.999522E-2,9.46916E-2],"split_indices":[0,2,1,0,1,2,0,0,0,0,0,0,0,0,0],"split_type":[0,0,0,0,0,0,0,0,0,0,0,0,0,0,0],"sum_hessian":[8.978911E4,5.699073E4,3.2798383E4,1.7535354E4,3.945538E4,7.888837E3,2.4909545E4,3.8504736E3,1.368488E4,3.8336363E4,1.1190139E3,2.1897595E3,5.6990776E3,2.0920178E4,3.9893665E3],"tree_param":{"num_deleted":"0","num_feature":"3","num_nodes":"15","size_leaf_vector":"1"}},{"base_weights":[6.604165E-2,4.7693533E-1,-6.479233E-1,-5.793841E-1,9.464035E-1,4.4478968E-1,-9.9398875E-1,8.313554E-2,-9.7635135E-2,9.9997394E-2,-8.881228E-2,-9.995436E-2,9.998246E-2,-9.99959E-2,-6.8339035E-2],"categories":[],"categories_nodes":[],"categories_segments":[],"categories_sizes":[],"default_left":[0,0,0,0,0,0,0,0,0,0,0,0,0,0,0],"id":21,"left_children":[1,3,5,7,9,11,13,-1,-1,-1,-1,-1,-1,-1,-1],"loss_changes":[2.6341467E4,2.826322E4,1.2403535E4,9.821473E3,3.8785195E3,6.3259287E3,4.551172E1,0E0,0E0,0E0,0E0,0E0,0E0,0E0,0E0],"parents":[2147483647,0,0,1,1,2,2,3,3,4,4,5,5,6,6],"right_children":[2,4,6,8,10,12,14,-1,-1,-1,-1,-1,-1,-1,-1],"split_conditions":[2.846427E-1,2.6319152E-1,2.5198656E-1,2.277991E-1,3.664031E-1,2.6193097E-1,3.8466713E-1,8.313554E-2,-9.7635135E-2,9.9997394E-2,-8.881228E-2,-9.995436E-2,9.998246E-2,-9.99959E-2,-6.8339035E-2],"split_indices":[0,2,1,0,1,2,1,0,0,0,0,0,0,0,0],"split_type":[0,0,0,0,0,0,0,0,0,0,0,0,0,0,0],"sum_hessian":[8.978911E4,5.699073E4,3.2798383E4,1.7535354E4,3.945538E4,7.888837E3,2.4909545E4,3.8504736E3,1.368488E4,3.8336363E4,1.1190139E3,2.1897595E3,5.6990776E3,2.4437586E4,4.7195746E2],"tree_param":{"num_deleted":"0","num_feature":"3","num_nodes":"15","size_leaf_vector":"1"}},{"base_weights":[-6.5078534E-2,-4.7591466E-1,6.4878637E-1,5.8237517E-1,-9.462586E-1,-4.4478968E-1,9.951252E-1,-8.292517E-2,9.79592E-2,-9.9997394E-2,8.932265E-2,9.995436E-2,-9.998246E-2,9.999595E-2,5.1801946E-2],"categories":[],"categories_nodes":[],"categories_segments":[],"categories_sizes":[],"default_left":[0,0,0,0,0,0,0,0,0,0,0,0,0,0,0],"id":22,"left_children":[1,3,5,7,9,11,13,-1,-1,-1,-1,-1,-1,-1,-1],"loss_changes":[2.6334086E4,2.836877E4,1.2423138E4,9.833831E3,3.8995156E3,6.3259287E3,5.6939453E1,0E0,0E0,0E0,0E0,0E0,0E0,0E0,0E0],"parents":[2147483647,0,0,1,1,2,2,3,3,4,4,5,5,6,6],"right_children":[2,4,6,8,10,12,14,-1,-1,-1,-1,-1,-1,-1,-1],"split_conditions":[2.846427E-1,2.6319152E-1,2.5198656E-1,2.277991E-1,3.664031E-1,2.6193097E-1,4.116222E-1,-8.292517E-2,9.79592E-2,-9.9997394E-2,8.932265E-2,9.995436E-2,-9.998246E-2,9.999595E-2,5.1801946E-2],"split_indices":[0,2,1,0,1,2,1,0,0,0,0,0,0,0,0],"split_type":[0,0,0,0,0,0,0,0,0,0,0,0,0,0,0],"sum_hessian":[8.978911E4,5.699073E4,3.2798383E4,1.7535354E4,3.945538E4,7.888837E3,2.4909545E4,3.8504736E3,1.368488E4,3.8336363E4,1.1190139E3,2.1897595E3,5.6990776E3,2.4658596E4,2.5094759E2],"tree_param":{"num_deleted":"0","num_feature":"3","num_nodes":"15","size_leaf_vector":"1"}},{"base_weights":[6.277543E-2,4.7439933E-1,-6.5245825E-1,-5.876258E-1,9.464035E-1,4.4478968E-1,-9.999599E-2,8.313554E-2,-9.869119E-2,9.9997394E-2,-8.881228E-2,-9.995436E-2,9.998246E-2],"categories":[],"categories_nodes":[],"categories_segments":[],"categories_sizes":[],"default_left":[0,0,0,0,0,0,0,0,0,0,0,0,0],"id":23,"left_children":[1,3,5,7,9,11,-1,-1,-1,-1,-1,-1,-1],"loss_changes":[2.643517E4,2.8569387E4,1.2506698E4,9.936557E3,3.8785195E3,6.3259287E3,0E0,0E0,0E0,0E0,0E0,0E0,0E0],"parents":[2147483647,0,0,1,1,2,2,3,3,4,4,5,5],"right_children":[2,4,6,8,10,12,-1,-1,-1,-1,-1,-1,-1],"split_conditions":[2.846427E-1,2.6319152E-1,2.5198656E-1,2.277991E-1,3.664031E-1,2.6193097E-1,-9.999599E-2,8.313554E-2,-9.869119E-2,9.9997394E-2,-8.881228E-2,-9.995436E-2,9.998246E-2],"split_indices":[0,2,1,0,1,2,0,0,0,0,0,0,0],"split_type":[0,0,0,0,0,0,0,0,0,0,0,0,0],"sum_hessian":[8.978911E4,5.699073E4,3.2798383E4,1.7535354E4,3.945538E4,7.888837E3,2.4909545E4,3.8504736E3,1.368488E4,3.8336363E4,1.1190139E3,2.1897595E3,5.6990776E3],"tree_param":{"num_deleted":"0","num_feature":"3","num_nodes":"13","size_leaf_vector":"1"}},{"base_weights":[-6.198169E-2,-4.731488E-1,6.5245825E-1,5.91364E-1,-9.462586E-1,-4.4478968E-1,9.999599E-2,-8.292517E-2,9.911098E-2,-9.9997394E-2,8.932265E-2,9.995436E-2,-9.998246E-2],"categories":[],"categories_nodes":[],"categories_segments":[],"categories_sizes":[],"default_left":[0,0,0,0,0,0,0,0,0,0,0,0,0],"id":24,"left_children":[1,3,5,7,9,11,-1,-1,-1,-1,-1,-1,-1],"loss_changes":[2.6376531E4,2.870339E4,1.2506698E4,9.959458E3,3.8995156E3,6.3259287E3,0E0,0E0,0E0,0E0,0E0,0E0,0E0],"parents":[2147483647,0,0,1,1,2,2,3,3,4,4,5,5],"right_children":[2,4,6,8,10,12,-1,-1,-1,-1,-1,-1,-1],"split_conditions":[2.846427E-1,2.6319152E-1,2.5198656E-1,2.277991E-1,3.664031E-1,2.6193097E-1,9.999599E-2,-8.292517E-2,9.911098E-2,-9.9997394E-2,8.932265E-2,9.995436E-2,-9.998246E-2],"split_indices":[0,2,1,0,1,2,0,0,0,0,0,0,0],"split_type":[0,0,0,0,0,0,0,0,0,0,0,0,0],"sum_hessian":[8.978911E4,5.699073E4,3.2798383E4,1.7535354E4,3.945538E4,7.888837E3,2.4909545E4,3.8504736E3,1.368488E4,3.8336363E4,1.1190139E3,2.1897595E3,5.6990776E3],"tree_param":{"num_deleted":"0","num_feature":"3","num_nodes":"13","size_leaf_vector":"1"}},{"base_weights":[6.277543E-2,4.7439933E-1,-6.5245825E-1,-5.876258E-1,9.464035E-1,4.4478968E-1,-9.999599E-2,8.313554E-2,-9.869119E-2,9.9997394E-2,-8.881228E-2,-9.995436E-2,9.998246E-2],"categories":[],"categories_nodes":[],"categories_segments":[],"categories_sizes":[],"default_left":[0,0,0,0,0,0,0,0,0,0,0,0,0],"id":25,"left_children":[1,3,5,7,9,11,-1,-1,-1,-1,-1,-1,-1],"loss_changes":[2.643517E4,2.8569387E4,1.2506698E4,9.936557E3,3.8785195E3,6.3259287E3,0E0,0E0,0E0,0E0,0E0,0E0,0E0],"parents":[2147483647,0,0,1,1,2,2,3,3,4,4,5,5],"right_children":[2,4,6,8,10,12,-1,-1,-1,-1,-1,-1,-1],"split_conditions":[2.846427E-1,2.6319152E-1,2.5198656E-1,2.277991E-1,3.664031E-1,2.6193097E-1,-9.999599E-2,8.313554E-2,-9.869119E-2,9.9997394E-2,-8.881228E-2,-9.995436E-2,9.998246E-2],"split_indices":[0,2,1,0,1,2,0,0,0,0,0,0,0],"split_type":[0,0,0,0,0,0,0,0,0,0,0,0,0],"sum_hessian":[8.978911E4,5.699073E4,3.2798383E4,1.7535354E4,3.945538E4,7.888837E3,2.4909545E4,3.8504736E3,1.368488E4,3.8336363E4,1.1190139E3,2.1897595E3,5.6990776E3],"tree_param":{"num_deleted":"0","num_feature":"3","num_nodes":"13","size_leaf_vector":"1"}},{"base_weights":[-6.373725E-2,-4.7591466E-1,6.5245825E-1,5.8237517E-1,-9.462586E-1,-4.4478968E-1,9.999599E-2,-8.292517E-2,9.79592E-2,-9.9997394E-2,8.932265E-2,9.995436E-2,-9.998246E-2],"categories":[],"categories_nodes":[],"categories_segments":[],"categories_sizes":[],"default_left":[0,0,0,0,0,0,0,0,0,0,0,0,0],"id":26,"left_children":[1,3,5,7,9,11,-1,-1,-1,-1,-1,-1,-1],"loss_changes":[2.6506314E4,2.836877E4,1.2506698E4,9.833831E3,3.8995156E3,6.3259287E3,0E0,0E0,0E0,0E0,0E0,0E0,0E0],"parents":[2147483647,0,0,1,1,2,2,3,3,4,4,5,5],"right_children":[2,4,6,8,10,12,-1,-1,-1,-1,-1,-1,-1],"split_conditions":[2.846427E-1,2.6319152E-1,2.5198656E-1,2.277991E-1,3.664031E-1,2.6193097E-1,9.999599E-2,-8.292517E-2,9.79592E-2,-9.9997394E-2,8.932265E-2,9.995436E-2,-9.998246E-2],"split_indices":[0,2,1,0,1,2,0,0,0,0,0,0,0],"split_type":[0,0,0,0,0,0,0,0,0,0,0,0,0],"sum_hessian":[8.978911E4,5.699073E4,3.2798383E4,1.7535354E4,3.945538E4,7.888837E3,2.4909545E4,3.8504736E3,1.368488E4,3.8336363E4,1.1190139E3,2.1897595E3,5.6990776E3],"tree_param":{"num_deleted":"0","num_feature":"3","num_nodes":"13","size_leaf_vector":"1"}},{"base_weights":[6.438509E-2,4.7693533E-1,-6.5245825E-1,-5.793841E-1,9.464035E-1,4.4478968E-1,-9.999599E-2,8.313554E-2,-9.7635135E-2,9.9997394E-2,-8.881228E-2,-9.995436E-2,9.998246E-2],"categories":[],"categories_nodes":[],"categories_segments":[],"categories_sizes":[],"default_left":[0,0,0,0,0,0,0,0,0,0,0,0,0],"id":27,"left_children":[1,3,5,7,9,11,-1,-1,-1,-1,-1,-1,-1],"loss_changes":[2.655429E4,2.826322E4,1.2506698E4,9.821473E3,3.8785195E3,6.3259287E3,0E0,0E0,0E0,0E0,0E0,0E0,0E0],"parents":[2147483647,0,0,1,1,2,2,3,3,4,4,5,5],"right_children":[2,4,6,8,10,12,-1,-1,-1,-1,-1,-1,-1],"split_conditions":[2.846427E-1,2.6319152E-1,2.5198656E-1,2.277991E-1,3.664031E-1,2.6193097E-1,-9.999599E-2,8.313554E-2,-9.7635135E-2,9.9997394E-2,-8.881228E-2,-9.995436E-2,9.998246E-2],"split_indices":[0,2,1,0,1,2,0,0,0,0,0,0,0],"split_type":[0,0,0,0,0,0,0,0,0,0,0,0,0],"sum_hessian":[8.978911E4,5.699073E4,3.2798383E4,1.7535354E4,3.945538E4,7.888837E3,2.4909545E4,3.8504736E3,1.368488E4,3.8336363E4,1.1190139E3,2.1897595E3,5.6990776E3],"tree_param":{"num_deleted":"0","num_feature":"3","num_nodes":"13","size_leaf_vector":"1"}},{"base_weights":[-6.373725E-2,-4.7591466E-1,6.5245825E-1,5.8237517E-1,-9.462586E-1,-4.4478968E-1,9.999599E-2,-8.292517E-2,9.79592E-2,-9.9997394E-2,8.932265E-2,9.995436E-2,-9.998246E-2],"categories":[],"categories_nodes":[],"categories_segments":[],"categories_sizes":[],"default_left":[0,0,0,0,0,0,0,0,0,0,0,0,0],"id":28,"left_children":[1,3,5,7,9,11,-1,-1,-1,-1,-1,-1,-1],"loss_changes":[2.6506314E4,2.836877E4,1.2506698E4,9.833831E3,3.8995156E3,6.3259287E3,0E0,0E0,0E0,0E0,0E0,0E0,0E0],"parents":[2147483647,0,0,1,1,2,2,3,3,4,4,5,5],"right_children":[2,4,6,8,10,12,-1,-1,-1,-1,-1,-1,-1],"split_conditions":[2.846427E-1,2.6319152E-1,2.5198656E-1,2.277991E-1,3.664031E-1,2.6193097E-1,9.999599E-2,-8.292517E-2,9.79592E-2,-9.9997394E-2,8.932265E-2,9.995436E-2,-9.998246E-2],"split_indices":[0,2,1,0,1,2,0,0,0,0,0,0,0],"split_type":[0,0,0,0,0,0,0,0,0,0,0,0,0],"sum_hessian":[8.978911E4,5.699073E4,3.2798383E4,1.7535354E4,3.945538E4,7.888837E3,2.4909545E4,3.8504736E3,1.368488E4,3.8336363E4,1.1190139E3,2.1897595E3,5.6990776E3],"tree_param":{"num_deleted":"0","num_feature":"3","num_nodes":"13","size_leaf_vector":"1"}},{"base_weights":[6.277543E-2,4.7439933E-1,-6.5245825E-1,-5.876258E-1,9.464035E-1,4.4478968E-1,-9.999599E-2,8.313554E-2,-9.869119E-2,9.9997394E-2,-8.881228E-2,-9.995436E-2,9.998246E-2],"categories":[],"categories_nodes":[],"categories_segments":[],"categories_sizes":[],"default_left":[0,0,0,0,0,0,0,0,0,0,0,0,0],"id":29,"left_children":[1,3,5,7,9,11,-1,-1,-1,-1,-1,-1,-1],"loss_changes":[2.643517E4,2.8569387E4,1.2506698E4,9.936557E3,3.8785195E3,6.3259287E3,0E0,0E0,0E0,0E0,0E0,0E0,0E0],"parents":[2147483647,0,0,1,1,2,2,3,3,4,4,5,5],"right_children":[2,4,6,8,10,12,-1,-1,-1,-1,-1,-1,-1],"split_conditions":[2.846427E-1,2.6319152E-1,2.5198656E-1,2.277991E-1,3.664031E-1,2.6193097E-1,-9.999599E-2,8.313554E-2,-9.869119E-2,9.9997394E-2,-8.881228E-2,-9.995436E-2,9.998246E-2],"split_indices":[0,2,1,0,1,2,0,0,0,0,0,0,0],"split_type":[0,0,0,0,0,0,0,0,0,0,0,0,0],"sum_hessian":[8.978911E4,5.699073E4,3.2798383E4,1.7535354E4,3.945538E4,7.888837E3,2.4909545E4,3.8504736E3,1.368488E4,3.8336363E4,1.1190139E3,2.1897595E3,5.6990776E3],"tree_param":{"num_deleted":"0","num_feature":"3","num_nodes":"13","size_leaf_vector":"1"}},{"base_weights":[-6.198169E-2,-4.731488E-1,6.5245825E-1,5.91364E-1,-9.462586E-1,-4.4478968E-1,9.999599E-2,-8.292517E-2,9.911098E-2,-9.9997394E-2,8.932265E-2,9.995436E-2,-9.998246E-2],"categories":[],"categories_nodes":[],"categories_segments":[],"categories_sizes":[],"default_left":[0,0,0,0,0,0,0,0,0,0,0,0,0],"id":30,"left_children":[1,3,5,7,9,11,-1,-1,-1,-1,-1,-1,-1],"loss_changes":[2.6376531E4,2.870339E4,1.2506698E4,9.959458E3,3.8995156E3,6.3259287E3,0E0,0E0,0E0,0E0,0E0,0E0,0E0],"parents":[2147483647,0,0,1,1,2,2,3,3,4,4,5,5],"right_children":[2,4,6,8,10,12,-1,-1,-1,-1,-1,-1,-1],"split_conditions":[2.846427E-1,2.6319152E-1,2.5198656E-1,2.277991E-1,3.664031E-1,2.6193097E-1,9.999599E-2,-8.292517E-2,9.911098E-2,-9.9997394E-2,8.932265E-2,9.995436E-2,-9.998246E-2],"split_indices":[0,2,1,0,1,2,0,0,0,0,0,0,0],"split_type":[0,0,0,0,0,0,0,0,0,0,0,0,0],"sum_hessian":[8.978911E4,5.699073E4,3.2798383E4,1.7535354E4,3.945538E4,7.888837E3,2.4909545E4,3.8504736E3,1.368488E4,3.8336363E4,1.1190139E3,2.1897595E3,5.6990776E3],"tree_param":{"num_deleted":"0","num_feature":"3","num_nodes":"13","size_leaf_vector":"1"}},{"base_weights":[6.139105E-2,4.7221825E-1,-6.5245825E-1,-5.876258E-1,9.432531E-1,4.4478968E-1,-9.999599E-2,8.313554E-2,-9.869119E-2,9.9997394E-2,-9.991072E-2,-9.995436E-2,9.998246E-2],"categories":[],"categories_nodes":[],"categories_segments":[],"categories_sizes":[],"default_left":[0,0,0,0,0,0,0,0,0,0,0,0,0],"id":31,"left_children":[1,3,5,7,9,11,-1,-1,-1,-1,-1,-1,-1],"loss_changes":[2.6332938E4,2.8452164E4,1.2506698E4,9.936557E3,4.348E3,6.3259287E3,0E0,0E0,0E0,0E0,0E0,0E0,0E0],"parents":[2147483647,0,0,1,1,2,2,3,3,4,4,5,5],"right_children":[2,4,6,8,10,12,-1,-1,-1,-1,-1,-1,-1],"split_conditions":[2.846427E-1,2.6319152E-1,2.5198656E-1,2.277991E-1,3.664031E-1,2.6193097E-1,-9.999599E-2,8.313554E-2,-9.869119E-2,9.9997394E-2,-9.991072E-2,-9.995436E-2,9.998246E-2],"split_indices":[0,2,1,0,1,2,0,0,0,0,0,0,0],"split_type":[0,0,0,0,0,0,0,0,0,0,0,0,0],"sum_hessian":[8.978911E4,5.699073E4,3.2798383E4,1.7535354E4,3.945538E4,7.888837E3,2.4909545E4,3.8504736E3,1.368488E4,3.8336363E4,1.1190139E3,2.1897595E3,5.6990776E3],"tree_param":{"num_deleted":"0","num_feature":"3","num_nodes":"13","size_leaf_vector":"1"}},{"base_weights":[-6.373725E-2,-4.7591466E-1,6.5245825E-1,5.8237517E-1,-9.462586E-1,-4.4478968E-1,9.999599E-2,-8.292517E-2,9.79592E-2,-9.9997394E-2,8.932265E-2,9.995436E-2,-9.998246E-2],"categories":[],"categories_nodes":[],"categories_segments":[],"categories_sizes":[],"default_left":[0,0,0,0,0,0,0,0,0,0,0,0,0],"id":32,"left_children":[1,3,5,7,9,11,-1,-1,-1,-1,-1,-1,-1],"loss_changes":[2.6506314E4,2.836877E4,1.2506698E4,9.833831E3,3.8995156E3,6.3259287E3,0E0,0E0,0E0,0E0,0E0,0E0,0E0],"parents":[2147483647,0,0,1,1,2,2,3,3,4,4,5,5],"right_children":[2,4,6,8,10,12,-1,-1,-1,-1,-1,-1,-1],"split_conditions":[2.846427E-1,2.6319152E-1,2.5198656E-1,2.277991E-1,3.664031E-1,2.6193097E-1,9.999599E-2,-8.292517E-2,9.79592E-2,-9.9997394E-2,8.932265E-2,9.995436E-2,-9.998246E-2],"split_indices":[0,2,1,0,1,2,0,0,0,0,0,0,0],"split_type":[0,0,0,0,0,0,0,0,0,0,0,0,0],"sum_hessian":[8.978911E4,5.699073E4,3.2798383E4,1.7535354E4,3.945538E4,7.888837E3,2.4909545E4,3.8504736E3,1.368488E4,3.8336363E4,1.1190139E3,2.1897595E3,5.6990776E3],"tree_param":{"num_deleted":"0","num_feature":"3","num_nodes":"13","size_leaf_vector":"1"}},{"base_weights":[6.438509E-2,4.7693533E-1,-6.5245825E-1,-5.793841E-1,9.464035E-1,4.4478968E-1,-9.999599E-2,8.313554E-2,-9.7635135E-2,9.9997394E-2,-8.881228E-2,-9.995436E-2,9.998246E-2],"categories":[],"categories_nodes":[],"categories_segments":[],"categories_sizes":[],"default_left":[0,0,0,0,0,0,0,0,0,0,0,0,0],"id":33,"left_children":[1,3,5,7,9,11,-1,-1,-1,-1,-1,-1,-1],"loss_changes":[2.655429E4,2.826322E4,1.2506698E4,9.821473E3,3.8785195E3,6.3259287E3,0E0,0E0,0E0,0E0,0E0,0E0,0E0],"parents":[2147483647,0,0,1,1,2,2,3,3,4,4,5,5],"right_children":[2,4,6,8,10,12,-1,-1,-1,-1,-1,-1,-1],"split_conditions":[2.846427E-1,2.6319152E-1,2.5198656E-1,2.277991E-1,3.664031E-1,2.6193097E-1,-9.999599E-2,8.313554E-2,-9.7635135E-2,9.9997394E-2,-8.881228E-2,-9.995436E-2,9.998246E-2],"split_indices":[0,2,1,0,1,2,0,0,0,0,0,0,0],"split_type":[0,0,0,0,0,0,0,0,0,0,0,0,0],"sum_hessian":[8.978911E4,5.699073E4,3.2798383E4,1.7535354E4,3.945538E4,7.888837E3,2.4909545E4,3.8504736E3,1.368488E4,3.8336363E4,1.1190139E3,2.1897595E3,5.6990776E3],"tree_param":{"num_deleted":"0","num_feature":"3","num_nodes":"13","size_leaf_vector":"1"}},{"base_weights":[-6.373725E-2,-4.7591466E-1,6.5245825E-1,5.8237517E-1,-9.462586E-1,-4.4478968E-1,9.999599E-2,-8.292517E-2,9.79592E-2,-9.9997394E-2,8.932265E-2,9.995436E-2,-9.998246E-2],"categories":[],"categories_nodes":[],"categories_segments":[],"categories_sizes":[],"default_left":[0,0,0,0,0,0,0,0,0,0,0,0,0],"id":34,"left_children":[1,3,5,7,9,11,-1,-1,-1,-1,-1,-1,-1],"loss_changes":[2.6506314E4,2.836877E4,1.2506698E4,9.833831E3,3.8995156E3,6.3259287E3,0E0,0E0,0E0,0E0,0E0,0E0,0E0],"parents":[2147483647,0,0,1,1,2,2,3,3,4,4,5,5],"right_children":[2,4,6,8,10,12,-1,-1,-1,-1,-1,-1,-1],"split_conditions":[2.846427E-1,2.6319152E-1,2.5198656E-1,2.277991E-1,3.664031E-1,2.6193097E-1,9.999599E-2,-8.292517E-2,9.79592E-2,-9.9997394E-2,8.932265E-2,9.995436E-2,-9.998246E-2],"split_indices":[0,2,1,0,1,2,0,0,0,0,0,0,0],"split_type":[0,0,0,0,0,0,0,0,0,0,0,0,0],"sum_hessian":[8.978911E4,5.699073E4,3.2798383E4,1.7535354E4,3.945538E4,7.888837E3,2.4909545E4,3.8504736E3,1.368488E4,3.8336363E4,1.1190139E3,2.1897595E3,5.6990776E3],"tree_param":{"num_deleted":"0","num_feature":"3","num_nodes":"13","size_leaf_vector":"1"}},{"base_weights":[6.277543E-2,4.7439933E-1,-6.5245825E-1,-5.876258E-1,9.464035E-1,4.4478968E-1,-9.999599E-2,8.313554E-2,-9.869119E-2,9.9997394E-2,-8.881228E-2,-9.995436E-2,9.998246E-2],"categories":[],"categories_nodes":[],"categories_segments":[],"categories_sizes":[],"default_left":[0,0,0,0,0,0,0,0,0,0,0,0,0],"id":35,"left_children":[1,3,5,7,9,11,-1,-1,-1,-1,-1,-1,-1],"loss_changes":[2.643517E4,2.8569387E4,1.2506698E4,9.936557E3,3.8785195E3,6.3259287E3,0E0,0E0,0E0,0E0,0E0,0E0,0E0],"parents":[2147483647,0,0,1,1,2,2,3,3,4,4,5,5],"right_children":[2,4,6,8,10,12,-1,-1,-1,-1,-1,-1,-1],"split_conditions":[2.846427E-1,2.6319152E-1,2.5198656E-1,2.277991E-1,3.664031E-1,2.6193097E-1,-9.999599E-2,8.313554E-2,-9.869119E-2,9.9997394E-2,-8.881228E-2,-9.995436E-2,9.998246E-2],"split_indices":[0,2,1,0,1,2,0,0,0,0,0,0,0],"split_type":[0,0,0,0,0,0,0,0,0,0,0,0,0],"sum_hessian":[8.978911E4,5.699073E4,3.2798383E4,1.7535354E4,3.945538E4,7.888837E3,2.4909545E4,3.8504736E3,1.368488E4,3.8336363E4,1.1190139E3,2.1897595E3,5.6990776E3],"tree_param":{"num_deleted":"0","num_feature":"3","num_nodes":"13","size_leaf_vector":"1"}},{"base_weights":[-6.198169E-2,-4.731488E-1,6.5245825E-1,5.91364E-1,-9.462586E-1,-4.4478968E-1,9.999599E-2,-8.292517E-2,9.911098E-2,-9.9997394E-2,8.932265E-2,9.995436E-2,-9.998246E-2],"categories":[],"categories_nodes":[],"categories_segments":[],"categories_sizes":[],"default_left":[0,0,0,0,0,0,0,0,0,0,0,0,0],"id":36,"left_children":[1,3,5,7,9,11,-1,-1,-1,-1,-1,-1,-1],"loss_changes":[2.6376531E4,2.870339E4,1.2506698E4,9.959458E3,3.8995156E3,6.3259287E3,0E0,0E0,0E0,0E0,0E0,0E0,0E0],"parents":[2147483647,0,0,1,1,2,2,3,3,4,4,5,5],"right_children":[2,4,6,8,10,12,-1,-1,-1,-1,-1,-1,-1],"split_conditions":[2.846427E-1,2.6319152E-1,2.5198656E-1,2.277991E-1,3.664031E-1,2.6193097E-1,9.999599E-2,-8.292517E-2,9.911098E-2,-9.9997394E-2,8.932265E-2,9.995436E-2,-9.998246E-2],"split_indices":[0,2,1,0,1,2,0,0,0,0,0,0,0],"split_type":[0,0,0,0,0,0,0,0,0,0,0,0,0],"sum_hessian":[8.978911E4,5.699073E4,3.2798383E4,1.7535354E4,3.945538E4,7.888837E3,2.4909545E4,3.8504736E3,1.368488E4,3.8336363E4,1.1190139E3,2.1897595E3,5.6990776E3],"tree_param":{"num_deleted":"0","num_feature":"3","num_nodes":"13","size_leaf_vector":"1"}},{"base_weights":[6.277543E-2,4.7439933E-1,-6.5245825E-1,-5.876258E-1,9.464035E-1,4.4478968E-1,-9.999599E-2,8.313554E-2,-9.869119E-2,9.9997394E-2,-8.881228E-2,-9.995436E-2,9.998246E-2],"categories":[],"categories_nodes":[],"categories_segments":[],"categories_sizes":[],"default_left":[0,0,0,0,0,0,0,0,0,0,0,0,0],"id":37,"left_children":[1,3,5,7,9,11,-1,-1,-1,-1,-1,-1,-1],"loss_changes":[2.643517E4,2.8569387E4,1.2506698E4,9.936557E3,3.8785195E3,6.3259287E3,0E0,0E0,0E0,0E0,0E0,0E0,0E0],"parents":[2147483647,0,0,1,1,2,2,3,3,4,4,5,5],"right_children":[2,4,6,8,10,12,-1,-1,-1,-1,-1,-1,-1],"split_conditions":[2.846427E-1,2.6319152E-1,2.5198656E-1,2.277991E-1,3.664031E-1,2.6193097E-1,-9.999599E-2,8.313554E-2,-9.869119E-2,9.9997394E-2,-8.881228E-2,-9.995436E-2,9.998246E-2],"split_indices":[0,2,1,0,1,2,0,0,0,0,0,0,0],"split_type":[0,0,0,0,0,0,0,0,0,0,0,0,0],"sum_hessian":[8.978911E4,5.699073E4,3.2798383E4,1.7535354E4,3.945538E4,7.888837E3,2.4909545E4,3.8504736E3,1.368488E4,3.8336363E4,1.1190139E3,2.1897595E3,5.6990776E3],"tree_param":{"num_deleted":"0","num_feature":"3","num_nodes":"13","size_leaf_vector":"1"}},{"base_weights":[-6.373725E-2,-4.7591466E-1,6.5245825E-1,5.8237517E-1,-9.462586E-1,-4.4478968E-1,9.999599E-2,-8.292517E-2,9.79592E-2,-9.9997394E-2,8.932265E-2,9.995436E-2,-9.998246E-2],"categories":[],"categories_nodes":[],"categories_segments":[],"categories_sizes":[],"default_left":[0,0,0,0,0,0,0,0,0,0,0,0,0],"id":38,"left_children":[1,3,5,7,9,11,-1,-1,-1,-1,-1,-1,-1],"loss_changes":[2.6506314E4,2.836877E4,1.2506698E4,9.833831E3,3.8995156E3,6.3259287E3,0E0,0E0,0E0,0E0,0E0,0E0,0E0],"parents":[2147483647,0,0,1,1,2,2,3,3,4,4,5,5],"right_children":[2,4,6,8,10,12,-1,-1,-1,-1,-1,-1,-1],"split_conditions":[2.846427E-1,2.6319152E-1,2.5198656E-1,2.277991E-1,3.664031E-1,2.6193097E-1,9.999599E-2,-8.292517E-2,9.79592E-2,-9.9997394E-2,8.932265E-2,9.995436E-2,-9.998246E-2],"split_indices":[0,2,1,0,1,2,0,0,0,0,0,0,0],"split_type":[0,0,0,0,0,0,0,0,0,0,0,0,0],"sum_hessian":[8.978911E4,5.699073E4,3.2798383E4,1.7535354E4,3.945538E4,7.888837E3,2.4909545E4,3.8504736E3,1.368488E4,3.8336363E4,1.1190139E3,2.1897595E3,5.6990776E3],"tree_param":{"num_deleted":"0","num_feature":"3","num_nodes":"13","size_leaf_vector":"1"}},{"base_weights":[6.438509E-2,4.7693533E-1,-6.5245825E-1,-5.793841E-1,9.464035E-1,4.4478968E-1,-9.999599E-2,8.313554E-2,-9.7635135E-2,9.9997394E-2,-8.881228E-2,-9.995436E-2,9.998246E-2],"categories":[],"categories_nodes":[],"categories_segments":[],"categories_sizes":[],"default_left":[0,0,0,0,0,0,0,0,0,0,0,0,0],"id":39,"left_children":[1,3,5,7,9,11,-1,-1,-1,-1,-1,-1,-1],"loss_changes":[2.655429E4,2.826322E4,1.2506698E4,9.821473E3,3.8785195E3,6.3259287E3,0E0,0E0,0E0,0E0,0E0,0E0,0E0],"parents":[2147483647,0,0,1,1,2,2,3,3,4,4,5,5],"right_children":[2,4,6,8,10,12,-1,-1,-1,-1,-1,-1,-1],"split_conditions":[2.846427E-1,2.6319152E-1,2.5198656E-1,2.277991E-1,3.664031E-1,2.6193097E-1,-9.999599E-2,8.313554E-2,-9.7635135E-2,9.9997394E-2,-8.881228E-2,-9.995436E-2,9.998246E-2],"split_indices":[0,2,1,0,1,2,0,0,0,0,0,0,0],"split_type":[0,0,0,0,0,0,0,0,0,0,0,0,0],"sum_hessian":[8.978911E4,5.699073E4,3.2798383E4,1.7535354E4,3.945538E4,7.888837E3,2.4909545E4,3.8504736E3,1.368488E4,3.8336363E4,1.1190139E3,2.1897595E3,5.6990776E3],"tree_param":{"num_deleted":"0","num_feature":"3","num_nodes":"13","size_leaf_vector":"1"}},{"base_weights":[-6.373725E-2,-4.7591466E-1,6.5245825E-1,5.8237517E-1,-9.462586E-1,-4.4478968E-1,9.999599E-2,-8.292517E-2,9.79592E-2,-9.9997394E-2,8.932265E-2,9.995436E-2,-9.998246E-2],"categories":[],"categories_nodes":[],"categories_segments":[],"categories_sizes":[],"default_left":[0,0,0,0,0,0,0,0,0,0,0,0,0],"id":40,"left_children":[1,3,5,7,9,11,-1,-1,-1,-1,-1,-1,-1],"loss_changes":[2.6506314E4,2.836877E4,1.2506698E4,9.833831E3,3.8995156E3,6.3259287E3,0E0,0E0,0E0,0E0,0E0,0E0,0E0],"parents":[2147483647,0,0,1,1,2,2,3,3,4,4,5,5],"right_children":[2,4,6,8,10,12,-1,-1,-1,-1,-1,-1,-1],"split_conditions":[2.846427E-1,2.6319152E-1,2.5198656E-1,2.277991E-1,3.664031E-1,2.6193097E-1,9.999599E-2,-8.292517E-2,9.79592E-2,-9.9997394E-2,8.932265E-2,9.995436E-2,-9.998246E-2],"split_indices":[0,2,1,0,1,2,0,0,0,0,0,0,0],"split_type":[0,0,0,0,0,0,0,0,0,0,0,0,0],"sum_hessian":[8.978911E4,5.699073E4,3.2798383E4,1.7535354E4,3.945538E4,7.888837E3,2.4909545E4,3.8504736E3,1.368488E4,3.8336363E4,1.1190139E3,2.1897595E3,5.6990776E3],"tree_param":{"num_deleted":"0","num_feature":"3","num_nodes":"13","size_leaf_vector":"1"}},{"base_weights":[6.277543E-2,4.7439933E-1,-6.5245825E-1,-5.876258E-1,9.464035E-1,4.4478968E-1,-9.999599E-2,8.313554E-2,-9.869119E-2,9.9997394E-2,-8.881228E-2,-9.995436E-2,9.998246E-2],"categories":[],"categories_nodes":[],"categories_segments":[],"categories_sizes":[],"default_left":[0,0,0,0,0,0,0,0,0,0,0,0,0],"id":41,"left_children":[1,3,5,7,9,11,-1,-1,-1,-1,-1,-1,-1],"loss_changes":[2.643517E4,2.8569387E4,1.2506698E4,9.936557E3,3.8785195E3,6.3259287E3,0E0,0E0,0E0,0E0,0E0,0E0,0E0],"parents":[2147483647,0,0,1,1,2,2,3,3,4,4,5,5],"right_children":[2,4,6,8,10,12,-1,-1,-1,-1,-1,-1,-1],"split_conditions":[2.846427E-1,2.6319152E-1,2.5198656E-1,2.277991E-1,3.664031E-1,2.6193097E-1,-9.999599E-2,8.313554E-2,-9.869119E-2,9.9997394E-2,-8.881228E-2,-9.995436E-2,9.998246E-2],"split_indices":[0,2,1,0,1,2,0,0,0,0,0,0,0],"split_type":[0,0,0,0,0,0,0,0,0,0,0,0,0],"sum_hessian":[8.978911E4,5.699073E4,3.2798383E4,1.7535354E4,3.945538E4,7.888837E3,2.4909545E4,3.8504736E3,1.368488E4,3.8336363E4,1.1190139E3,2.1897595E3,5.6990776E3],"tree_param":{"num_deleted":"0","num_feature":"3","num_nodes":"13","size_leaf_vector":"1"}},{"base_weights":[-6.198169E-2,-4.731488E-1,6.5245825E-1,5.91364E-1,-9.462586E-1,-4.4478968E-1,9.999599E-2,-8.292517E-2,9.911098E-2,-9.9997394E-2,8.932265E-2,9.995436E-2,-9.998246E-2],"categories":[],"categories_nodes":[],"categories_segments":[],"categories_sizes":[],"default_left":[0,0,0,0,0,0,0,0,0,0,0,0,0],"id":42,"left_children":[1,3,5,7,9,11,-1,-1,-1,-1,-1,-1,-1],"loss_changes":[2.6376531E4,2.870339E4,1.2506698E4,9.959458E3,3.8995156E3,6.3259287E3,0E0,0E0,0E0,0E0,0E0,0E0,0E0],"parents":[2147483647,0,0,1,1,2,2,3,3,4,4,5,5],"right_children":[2,4,6,8,10,12,-1,-1,-1,-1,-1,-1,-1],"split_conditions":[2.846427E-1,2.6319152E-1,2.5198656E-1,2.277991E-1,3.664031E-1,2.6193097E-1,9.999599E-2,-8.292517E-2,9.911098E-2,-9.9997394E-2,8.932265E-2,9.995436E-2,-9.998246E-2],"split_indices":[0,2,1,0,1,2,0,0,0,0,0,0,0],"split_type":[0,0,0,0,0,0,0,0,0,0,0,0,0],"sum_hessian":[8.978911E4,5.699073E4,3.2798383E4,1.7535354E4,3.945538E4,7.888837E3,2.4909545E4,3.8504736E3,1.368488E4,3.8336363E4,1.1190139E3,2.1897595E3,5.6990776E3],"tree_param":{"num_deleted":"0","num_feature":"3","num_nodes":"13","size_leaf_vector":"1"}},{"base_weights":[6.277543E-2,4.7439933E-1,-6.5245825E-1,-5.876258E-1,9.464035E-1,4.4478968E-1,-9.999599E-2,8.313554E-2,-9.869119E-2,9.9997394E-2,-8.881228E-2,-9.995436E-2,9.998246E-2],"categories":[],"categories_nodes":[],"categories_segments":[],"categories_sizes":[],"default_left":[0,0,0,0,0,0,0,0,0,0,0,0,0],"id":43,"left_children":[1,3,5,7,9,11,-1,-1,-1,-1,-1,-1,-1],"loss_changes":[2.643517E4,2.8569387E4,1.2506698E4,9.936557E3,3.8785195E3,6.3259287E3,0E0,0E0,0E0,0E0,0E0,0E0,0E0],"parents":[2147483647,0,0,1,1,2,2,3,3,4,4,5,5],"right_children":[2,4,6,8,10,12,-1,-1,-1,-1,-1,-1,-1],"split_conditions":[2.846427E-1,2.6319152E-1,2.5198656E-1,2.277991E-1,3.664031E-1,2.6193097E-1,-9.999599E-2,8.313554E-2,-9.869119E-2,9.9997394E-2,-8.881228E-2,-9.995436E-2,9.998246E-2],"split_indices":[0,2,1,0,1,2,0,0,0,0,0,0,0],"split_type":[0,0,0,0,0,0,0,0,0,0,0,0,0],"sum_hessian":[8.978911E4,5.699073E4,3.2798383E4,1.7535354E4,3.945538E4,7.888837E3,2.4909545E4,3.8504736E3,1.368488E4,3.8336363E4,1.1190139E3,2.1897595E3,5.6990776E3],"tree_param":{"num_deleted":"0","num_feature":"3","num_nodes":"13","size_leaf_vector":"1"}},{"base_weights":[-6.373725E-2,-4.7591466E-1,6.5245825E-1,5.8237517E-1,-9.462586E-1,-4.4478968E-1,9.999599E-2,-8.292517E-2,9.79592E-2,-9.9997394E-2,8.932265E-2,9.995436E-2,-9.998246E-2],"categories":[],"categories_nodes":[],"categories_segments":[],"categories_sizes":[],"default_left":[0,0,0,0,0,0,0,0,0,0,0,0,0],"id":44,"left_children":[1,3,5,7,9,11,-1,-1,-1,-1,-1,-1,-1],"loss_changes":[2.6506314E4,2.836877E4,1.2506698E4,9.833831E3,3.8995156E3,6.3259287E3,0E0,0E0,0E0,0E0,0E0,0E0,0E0],"parents":[2147483647,0,0,1,1,2,2,3,3,4,4,5,5],"right_children":[2,4,6,8,10,12,-1,-1,-1,-1,-1,-1,-1],"split_conditions":[2.846427E-1,2.6319152E-1,2.5198656E-1,2.277991E-1,3.664031E-1,2.6193097E-1,9.999599E-2,-8.292517E-2,9.79592E-2,-9.9997394E-2,8.932265E-2,9.995436E-2,-9.998246E-2],"split_indices":[0,2,1,0,1,2,0,0,0,0,0,0,0],"split_type":[0,0,0,0,0,0,0,0,0,0,0,0,0],"sum_hessian":[8.978911E4,5.699073E4,3.2798383E4,1.7535354E4,3.945538E4,7.888837E3,2.4909545E4,3.8504736E3,1.368488E4,3.8336363E4,1.1190139E3,2.1897595E3,5.6990776E3],"tree_param":{"num_deleted":"0","num_feature":"3","num_nodes":"13","size_leaf_vector":"1"}},{"base_weights":[6.3063644E-2,4.748534E-1,-6.5245825E-1,-5.8615017E-1,9.464035E-1,4.4478968E-1,-9.999599E-2,8.0054834E-2,-9.7635135E-2,9.9997394E-2,-8.881228E-2,-9.995436E-2,9.998246E-2],"categories":[],"categories_nodes":[],"categories_segments":[],"categories_sizes":[],"default_left":[0,0,0,0,0,0,0,0,0,0,0,0,0],"id":45,"left_children":[1,3,5,7,9,11,-1,-1,-1,-1,-1,-1,-1],"loss_changes":[2.6456479E4,2.8514445E4,1.2506698E4,9.489551E3,3.8785195E3,6.3259287E3,0E0,0E0,0E0,0E0,0E0,0E0,0E0],"parents":[2147483647,0,0,1,1,2,2,3,3,4,4,5,5],"right_children":[2,4,6,8,10,12,-1,-1,-1,-1,-1,-1,-1],"split_conditions":[2.846427E-1,2.6319152E-1,2.5198656E-1,2.277991E-1,3.664031E-1,2.6193097E-1,-9.999599E-2,8.0054834E-2,-9.7635135E-2,9.9997394E-2,-8.881228E-2,-9.995436E-2,9.998246E-2],"split_indices":[0,2,1,0,1,2,0,0,0,0,0,0,0],"split_type":[0,0,0,0,0,0,0,0,0,0,0,0,0],"sum_hessian":[8.978911E4,5.699073E4,3.2798383E4,1.7535354E4,3.945538E4,7.888837E3,2.4909545E4,3.8504736E3,1.368488E4,3.8336363E4,1.1190139E3,2.1897595E3,5.6990776E3],"tree_param":{"num_deleted":"0","num_feature":"3","num_nodes":"13","size_leaf_vector":"1"}},{"base_weights":[-6.373725E-2,-4.7591466E-1,6.5245825E-1,5.8237517E-1,-9.462586E-1,-4.4478968E-1,9.999599E-2,-8.292517E-2,9.79592E-2,-9.9997394E-2,8.932265E-2,9.995436E-2,-9.998246E-2],"categories":[],"categories_nodes":[],"categories_segments":[],"categories_sizes":[],"default_left":[0,0,0,0,0,0,0,0,0,0,0,0,0],"id":46,"left_children":[1,3,5,7,9,11,-1,-1,-1,-1,-1,-1,-1],"loss_changes":[2.6506314E4,2.836877E4,1.2506698E4,9.833831E3,3.8995156E3,6.3259287E3,0E0,0E0,0E0,0E0,0E0,0E0,0E0],"parents":[2147483647,0,0,1,1,2,2,3,3,4,4,5,5],"right_children":[2,4,6,8,10,12,-1,-1,-1,-1,-1,-1,-1],"split_conditions":[2.846427E-1,2.6319152E-1,2.5198656E-1,2.277991E-1,3.664031E-1,2.6193097E-1,9.999599E-2,-8.292517E-2,9.79592E-2,-9.9997394E-2,8.932265E-2,9.995436E-2,-9.998246E-2],"split_indices":[0,2,1,0,1,2,0,0,0,0,0,0,0],"split_type":[0,0,0,0,0,0,0,0,0,0,0,0,0],"sum_hessian":[8.978911E4,5.699073E4,3.2798383E4,1.7535354E4,3.945538E4,7.888837E3,2.4909545E4,3.8504736E3,1.368488E4,3.8336363E4,1.1190139E3,2.1897595E3,5.6990776E3],"tree_param":{"num_deleted":"0","num_feature":"3","num_nodes":"13","size_leaf_vector":"1"}},{"base_weights":[6.4056404E-2,4.7641748E-1,-6.5245825E-1,-5.8106697E-1,9.464035E-1,4.4478968E-1,-9.999599E-2,8.612187E-2,-9.869119E-2,9.9997394E-2,-8.881228E-2,-9.995436E-2,9.998246E-2],"categories":[],"categories_nodes":[],"categories_segments":[],"categories_sizes":[],"default_left":[0,0,0,0,0,0,0,0,0,0,0,0,0],"id":47,"left_children":[1,3,5,7,9,11,-1,-1,-1,-1,-1,-1,-1],"loss_changes":[2.6529943E4,2.8325602E4,1.2506698E4,1.0265654E4,3.8785195E3,6.3259287E3,0E0,0E0,0E0,0E0,0E0,0E0,0E0],"parents":[2147483647,0,0,1,1,2,2,3,3,4,4,5,5],"right_children":[2,4,6,8,10,12,-1,-1,-1,-1,-1,-1,-1],"split_conditions":[2.846427E-1,2.6319152E-1,2.5198656E-1,2.277991E-1,3.664031E-1,2.6193097E-1,-9.999599E-2,8.612187E-2,-9.869119E-2,9.9997394E-2,-8.881228E-2,-9.995436E-2,9.998246E-2],"split_indices":[0,2,1,0,1,2,0,0,0,0,0,0,0],"split_type":[0,0,0,0,0,0,0,0,0,0,0,0,0],"sum_hessian":[8.978911E4,5.699073E4,3.2798383E4,1.7535354E4,3.945538E4,7.888837E3,2.4909545E4,3.8504736E3,1.368488E4,3.8336363E4,1.1190139E3,2.1897595E3,5.6990776E3],"tree_param":{"num_deleted":"0","num_feature":"3","num_nodes":"13","size_leaf_vector":"1"}},{"base_weights":[-6.198169E-2,-4.731488E-1,6.5245825E-1,5.91364E-1,-9.462586E-1,-4.4478968E-1,9.999599E-2,-8.292517E-2,9.911098E-2,-9.9997394E-2,8.932265E-2,9.995436E-2,-9.998246E-2],"categories":[],"categories_nodes":[],"categories_segments":[],"categories_sizes":[],"default_left":[0,0,0,0,0,0,0,0,0,0,0,0,0],"id":48,"left_children":[1,3,5,7,9,11,-1,-1,-1,-1,-1,-1,-1],"loss_changes":[2.6376531E4,2.870339E4,1.2506698E4,9.959458E3,3.8995156E3,6.3259287E3,0E0,0E0,0E0,0E0,0E0,0E0,0E0],"parents":[2147483647,0,0,1,1,2,2,3,3,4,4,5,5],"right_children":[2,4,6,8,10,12,-1,-1,-1,-1,-1,-1,-1],"split_conditions":[2.846427E-1,2.6319152E-1,2.5198656E-1,2.277991E-1,3.664031E-1,2.6193097E-1,9.999599E-2,-8.292517E-2,9.911098E-2,-9.9997394E-2,8.932265E-2,9.995436E-2,-9.998246E-2],"split_indices":[0,2,1,0,1,2,0,0,0,0,0,0,0],"split_type":[0,0,0,0,0,0,0,0,0,0,0,0,0],"sum_hessian":[8.978911E4,5.699073E4,3.2798383E4,1.7535354E4,3.945538E4,7.888837E3,2.4909545E4,3.8504736E3,1.368488E4,3.8336363E4,1.1190139E3,2.1897595E3,5.6990776E3],"tree_param":{"num_deleted":"0","num_feature":"3","num_nodes":"13","size_leaf_vector":"1"}},{"base_weights":[6.1453994E-2,4.7231743E-1,-6.5245825E-1,-5.943919E-1,9.464035E-1,4.4478968E-1,-9.999599E-2,8.0054834E-2,-9.869119E-2,9.9997394E-2,-8.881228E-2,-9.995436E-2,9.998246E-2],"categories":[],"categories_nodes":[],"categories_segments":[],"categories_sizes":[],"default_left":[0,0,0,0,0,0,0,0,0,0,0,0,0],"id":49,"left_children":[1,3,5,7,9,11,-1,-1,-1,-1,-1,-1,-1],"loss_changes":[2.633758E4,2.8821965E4,1.2506698E4,9.602679E3,3.8785195E3,6.3259287E3,0E0,0E0,0E0,0E0,0E0,0E0,0E0],"parents":[2147483647,0,0,1,1,2,2,3,3,4,4,5,5],"right_children":[2,4,6,8,10,12,-1,-1,-1,-1,-1,-1,-1],"split_conditions":[2.846427E-1,2.6319152E-1,2.5198656E-1,2.277991E-1,3.664031E-1,2.6193097E-1,-9.999599E-2,8.0054834E-2,-9.869119E-2,9.9997394E-2,-8.881228E-2,-9.995436E-2,9.998246E-2],"split_indices":[0,2,1,0,1,2,0,0,0,0,0,0,0],"split_type":[0,0,0,0,0,0,0,0,0,0,0,0,0],"sum_hessian":[8.978911E4,5.699073E4,3.2798383E4,1.7535354E4,3.945538E4,7.888837E3,2.4909545E4,3.8504736E3,1.368488E4,3.8336363E4,1.1190139E3,2.1897595E3,5.6990776E3],"tree_param":{"num_deleted":"0","num_feature":"3","num_nodes":"13","size_leaf_vector":"1"}},{"base_weights":[-6.373725E-2,-4.7591466E-1,6.5245825E-1,5.8237517E-1,-9.462586E-1,-4.4478968E-1,9.999599E-2,-8.292517E-2,9.79592E-2,-9.9997394E-2,8.932265E-2,9.995436E-2,-9.998246E-2],"categories":[],"categories_nodes":[],"categories_segments":[],"categories_sizes":[],"default_left":[0,0,0,0,0,0,0,0,0,0,0,0,0],"id":50,"left_children":[1,3,5,7,9,11,-1,-1,-1,-1,-1,-1,-1],"loss_changes":[2.6506314E4,2.836877E4,1.2506698E4,9.833831E3,3.8995156E3,6.3259287E3,0E0,0E0,0E0,0E0,0E0,0E0,0E0],"parents":[2147483647,0,0,1,1,2,2,3,3,4,4,5,5],"right_children":[2,4,6,8,10,12,-1,-1,-1,-1,-1,-1,-1],"split_conditions":[2.846427E-1,2.6319152E-1,2.5198656E-1,2.277991E-1,3.664031E-1,2.6193097E-1,9.999599E-2,-8.292517E-2,9.79592E-2,-9.9997394E-2,8.932265E-2,9.995436E-2,-9.998246E-2],"split_indices":[0,2,1,0,1,2,0,0,0,0,0,0,0],"split_type":[0,0,0,0,0,0,0,0,0,0,0,0,0],"sum_hessian":[8.978911E4,5.699073E4,3.2798383E4,1.7535354E4,3.945538E4,7.888837E3,2.4909545E4,3.8504736E3,1.368488E4,3.8336363E4,1.1190139E3,2.1897595E3,5.6990776E3],"tree_param":{"num_deleted":"0","num_feature":"3","num_nodes":"13","size_leaf_vector":"1"}},{"base_weights":[6.438509E-2,4.7693533E-1,-6.5245825E-1,-5.793841E-1,9.464035E-1,4.4478968E-1,-9.999599E-2,8.313554E-2,-9.7635135E-2,9.9997394E-2,-8.881228E-2,-9.995436E-2,9.998246E-2],"categories":[],"categories_nodes":[],"categories_segments":[],"categories_sizes":[],"default_left":[0,0,0,0,0,0,0,0,0,0,0,0,0],"id":51,"left_children":[1,3,5,7,9,11,-1,-1,-1,-1,-1,-1,-1],"loss_changes":[2.655429E4,2.826322E4,1.2506698E4,9.821473E3,3.8785195E3,6.3259287E3,0E0,0E0,0E0,0E0,0E0,0E0,0E0],"parents":[2147483647,0,0,1,1,2,2,3,3,4,4,5,5],"right_children":[2,4,6,8,10,12,-1,-1,-1,-1,-1,-1,-1],"split_conditions":[2.846427E-1,2.6319152E-1,2.5198656E-1,2.277991E-1,3.664031E-1,2.6193097E-1,-9.999599E-2,8.313554E-2,-9.7635135E-2,9.9997394E-2,-8.881228E-2,-9.995436E-2,9.998246E-2],"split_indices":[0,2,1,0,1,2,0,0,0,0,0,0,0],"split_type":[0,0,0,0,0,0,0,0,0,0,0,0,0],"sum_hessian":[8.978911E4,5.699073E4,3.2798383E4,1.7535354E4,3.945538E4,7.888837E3,2.4909545E4,3.8504736E3,1.368488E4,3.8336363E4,1.1190139E3,2.1897595E3,5.6990776E3],"tree_param":{"num_deleted":"0","num_feature":"3","num_nodes":"13","size_leaf_vector":"1"}},{"base_weights":[-6.373725E-2,-4.7591466E-1,6.5245825E-1,5.8237517E-1,-9.462586E-1,-4.4478968E-1,9.999599E-2,-8.292517E-2,9.79592E-2,-9.9997394E-2,8.932265E-2,9.995436E-2,-9.998246E-2],"categories":[],"categories_nodes":[],"categories_segments":[],"categories_sizes":[],"default_left":[0,0,0,0,0,0,0,0,0,0,0,0,0],"id":52,"left_children":[1,3,5,7,9,11,-1,-1,-1,-1,-1,-1,-1],"loss_changes":[2.6506314E4,2.836877E4,1.2506698E4,9.833831E3,3.8995156E3,6.3259287E3,0E0,0E0,0E0,0E0,0E0,0E0,0E0],"parents":[2147483647,0,0,1,1,2,2,3,3,4,4,5,5],"right_children":[2,4,6,8,10,12,-1,-1,-1,-1,-1,-1,-1],"split_conditions":[2.846427E-1,2.6319152E-1,2.5198656E-1,2.277991E-1,3.664031E-1,2.6193097E-1,9.999599E-2,-8.292517E-2,9.79592E-2,-9.9997394E-2,8.932265E-2,9.995436E-2,-9.998246E-2],"split_indices":[0,2,1,0,1,2,0,0,0,0,0,0,0],"split_type":[0,0,0,0,0,0,0,0,0,0,0,0,0],"sum_hessian":[8.978911E4,5.699073E4,3.2798383E4,1.7535354E4,3.945538E4,7.888837E3,2.4909545E4,3.8504736E3,1.368488E4,3.8336363E4,1.1190139E3,2.1897595E3,5.6990776E3],"tree_param":{"num_deleted":"0","num_feature":"3","num_nodes":"13","size_leaf_vector":"1"}},{"base_weights":[6.277543E-2,4.7439933E-1,-6.5245825E-1,-5.876258E-1,9.464035E-1,4.4478968E-1,-9.999599E-2,8.313554E-2,-9.869119E-2,9.9997394E-2,-8.881228E-2,-9.995436E-2,9.998246E-2],"categories":[],"categories_nodes":[],"categories_segments":[],"categories_sizes":[],"default_left":[0,0,0,0,0,0,0,0,0,0,0,0,0],"id":53,"left_children":[1,3,5,7,9,11,-1,-1,-1,-1,-1,-1,-1],"loss_changes":[2.643517E4,2.8569387E4,1.2506698E4,9.936557E3,3.8785195E3,6.3259287E3,0E0,0E0,0E0,0E0,0E0,0E0,0E0],"parents":[2147483647,0,0,1,1,2,2,3,3,4,4,5,5],"right_children":[2,4,6,8,10,12,-1,-1,-1,-1,-1,-1,-1],"split_conditions":[2.846427E-1,2.6319152E-1,2.5198656E-1,2.277991E-1,3.664031E-1,2.6193097E-1,-9.999599E-2,8.313554E-2,-9.869119E-2,9.9997394E-2,-8.881228E-2,-9.995436E-2,9.998246E-2],"split_indices":[0,2,1,0,1,2,0,0,0,0,0,0,0],"split_type":[0,0,0,0,0,0,0,0,0,0,0,0,0],"sum_hessian":[8.978911E4,5.699073E4,3.2798383E4,1.7535354E4,3.945538E4,7.888837E3,2.4909545E4,3.8504736E3,1.368488E4,3.8336363E4,1.1190139E3,2.1897595E3,5.6990776E3],"tree_param":{"num_deleted":"0","num_feature":"3","num_nodes":"13","size_leaf_vector":"1"}},{"base_weights":[-6.198169E-2,-4.731488E-1,6.5245825E-1,5.91364E-1,-9.462586E-1,-4.4478968E-1,9.999599E-2,-8.292517E-2,9.911098E-2,-9.9997394E-2,8.932265E-2,9.995436E-2,-9.998246E-2],"categories":[],"categories_nodes":[],"categories_segments":[],"categories_sizes":[],"default_left":[0,0,0,0,0,0,0,0,0,0,0,0,0],"id":54,"left_children":[1,3,5,7,9,11,-1,-1,-1,-1,-1,-1,-1],"loss_changes":[2.6376531E4,2.870339E4,1.2506698E4,9.959458E3,3.8995156E3,6.3259287E3,0E0,0E0,0E0,0E0,0E0,0E0,0E0],"parents":[2147483647,0,0,1,1,2,2,3,3,4,4,5,5],"right_children":[2,4,6,8,10,12,-1,-1,-1,-1,-1,-1,-1],"split_conditions":[2.846427E-1,2.6319152E-1,2.5198656E-1,2.277991E-1,3.664031E-1,2.6193097E-1,9.999599E-2,-8.292517E-2,9.911098E-2,-9.9997394E-2,8.932265E-2,9.995436E-2,-9.998246E-2],"split_indices":[0,2,1,0,1,2,0,0,0,0,0,0,0],"split_type":[0,0,0,0,0,0,0,0,0,0,0,0,0],"sum_hessian":[8.978911E4,5.699073E4,3.2798383E4,1.7535354E4,3.945538E4,7.888837E3,2.4909545E4,3.8504736E3,1.368488E4,3.8336363E4,1.1190139E3,2.1897595E3,5.6990776E3],"tree_param":{"num_deleted":"0","num_feature":"3","num_nodes":"13","size_leaf_vector":"1"}},{"base_weights":[6.277543E-2,4.7439933E-1,-6.5245825E-1,-5.876258E-1,9.464035E-1,4.4478968E-1,-9.999599E-2,8.313554E-2,-9.869119E-2,9.9997394E-2,-8.881228E-2,-9.995436E-2,9.998246E-2],"categories":[],"categories_nodes":[],"categories_segments":[],"categories_sizes":[],"default_left":[0,0,0,0,0,0,0,0,0,0,0,0,0],"id":55,"left_children":[1,3,5,7,9,11,-1,-1,-1,-1,-1,-1,-1],"loss_changes":[2.643517E4,2.8569387E4,1.2506698E4,9.936557E3,3.8785195E3,6.3259287E3,0E0,0E0,0E0,0E0,0E0,0E0,0E0],"parents":[2147483647,0,0,1,1,2,2,3,3,4,4,5,5],"right_children":[2,4,6,8,10,12,-1,-1,-1,-1,-1,-1,-1],"split_conditions":[2.846427E-1,2.6319152E-1,2.5198656E-1,2.277991E-1,3.664031E-1,2.6193097E-1,-9.999599E-2,8.313554E-2,-9.869119E-2,9.9997394E-2,-8.881228E-2,-9.995436E-2,9.998246E-2],"split_indices":[0,2,1,0,1,2,0,0,0,0,0,0,0],"split_type":[0,0,0,0,0,0,0,0,0,0,0,0,0],"sum_hessian":[8.978911E4,5.699073E4,3.2798383E4,1.7535354E4,3.945538E4,7.888837E3,2.4909545E4,3.8504736E3,1.368488E4,3.8336363E4,1.1190139E3,2.1897595E3,5.6990776E3],"tree_param":{"num_deleted":"0","num_feature":"3","num_nodes":"13","size_leaf_vector":"1"}},{"base_weights":[-6.373725E-2,-4.7591466E-1,6.5245825E-1,5.8237517E-1,-9.462586E-1,-4.4478968E-1,9.999599E-2,-8.292517E-2,9.79592E-2,-9.9997394E-2,8.932265E-2,9.995436E-2,-9.998246E-2],"categories":[],"categories_nodes":[],"categories_segments":[],"categories_sizes":[],"default_left":[0,0,0,0,0,0,0,0,0,0,0,0,0],"id":56,"left_children":[1,3,5,7,9,11,-1,-1,-1,-1,-1,-1,-1],"loss_changes":[2.6506314E4,2.836877E4,1.2506698E4,9.833831E3,3.8995156E3,6.3259287E3,0E0,0E0,0E0,0E0,0E0,0E0,0E0],"parents":[2147483647,0,0,1,1,2,2,3,3,4,4,5,5],"right_children":[2,4,6,8,10,12,-1,-1,-1,-1,-1,-1,-1],"split_conditions":[2.846427E-1,2.6319152E-1,2.5198656E-1,2.277991E-1,3.664031E-1,2.6193097E-1,9.999599E-2,-8.292517E-2,9.79592E-2,-9.9997394E-2,8.932265E-2,9.995436E-2,-9.998246E-2],"split_indices":[0,2,1,0,1,2,0,0,0,0,0,0,0],"split_type":[0,0,0,0,0,0,0,0,0,0,0,0,0],"sum_hessian":[8.978911E4,5.699073E4,3.2798383E4,1.7535354E4,3.945538E4,7.888837E3,2.4909545E4,3.8504736E3,1.368488E4,3.8336363E4,1.1190139E3,2.1897595E3,5.6990776E3],"tree_param":{"num_deleted":"0","num_feature":"3","num_nodes":"13","size_leaf_vector":"1"}},{"base_weights":[6.438509E-2,4.7693533E-1,-6.5245825E-1,-5.793841E-1,9.464035E-1,4.4478968E-1,-9.999599E-2,8.313554E-2,-9.7635135E-2,9.9997394E-2,-8.881228E-2,-9.995436E-2,9.998246E-2],"categories":[],"categories_nodes":[],"categories_segments":[],"categories_sizes":[],"default_left":[0,0,0,0,0,0,0,0,0,0,0,0,0],"id":57,"left_children":[1,3,5,7,9,11,-1,-1,-1,-1,-1,-1,-1],"loss_changes":[2.655429E4,2.826322E4,1.2506698E4,9.821473E3,3.8785195E3,6.3259287E3,0E0,0E0,0E0,0E0,0E0,0E0,0E0],"parents":[2147483647,0,0,1,1,2,2,3,3,4,4,5,5],"right_children":[2,4,6,8,10,12,-1,-1,-1,-1,-1,-1,-1],"split_conditions":[2.846427E-1,2.6319152E-1,2.5198656E-1,2.277991E-1,3.664031E-1,2.6193097E-1,-9.999599E-2,8.313554E-2,-9.7635135E-2,9.9997394E-2,-8.881228E-2,-9.995436E-2,9.998246E-2],"split_indices":[0,2,1,0,1,2,0,0,0,0,0,0,0],"split_type":[0,0,0,0,0,0,0,0,0,0,0,0,0],"sum_hessian":[8.978911E4,5.699073E4,3.2798383E4,1.7535354E4,3.945538E4,7.888837E3,2.4909545E4,3.8504736E3,1.368488E4,3.8336363E4,1.1190139E3,2.1897595E3,5.6990776E3],"tree_param":{"num_deleted":"0","num_feature":"3","num_nodes":"13","size_leaf_vector":"1"}},{"base_weights":[-6.373725E-2,-4.7591466E-1,6.5245825E-1,5.8237517E-1,-9.462586E-1,-4.4478968E-1,9.999599E-2,-8.292517E-2,9.79592E-2,-9.9997394E-2,8.932265E-2,9.995436E-2,-9.998246E-2],"categories":[],"categories_nodes":[],"categories_segments":[],"categories_sizes":[],"default_left":[0,0,0,0,0,0,0,0,0,0,0,0,0],"id":58,"left_children":[1,3,5,7,9,11,-1,-1,-1,-1,-1,-1,-1],"loss_changes":[2.6506314E4,2.836877E4,1.2506698E4,9.833831E3,3.8995156E3,6.3259287E3,0E0,0E0,0E0,0E0,0E0,0E0,0E0],"parents":[2147483647,0,0,1,1,2,2,3,3,4,4,5,5],"right_children":[2,4,6,8,10,12,-1,-1,-1,-1,-1,-1,-1],"split_conditions":[2.846427E-1,2.6319152E-1,2.5198656E-1,2.277991E-1,3.664031E-1,2.6193097E-1,9.999599E-2,-8.292517E-2,9.79592E-2,-9.9997394E-2,8.932265E-2,9.995436E-2,-9.998246E-2],"split_indices":[0,2,1,0,1,2,0,0,0,0,0,0,0],"split_type":[0,0,0,0,0,0,0,0,0,0,0,0,0],"sum_hessian":[8.978911E4,5.699073E4,3.2798383E4,1.7535354E4,3.945538E4,7.888837E3,2.4909545E4,3.8504736E3,1.368488E4,3.8336363E4,1.1190139E3,2.1897595E3,5.6990776E3],"tree_param":{"num_deleted":"0","num_feature":"3","num_nodes":"13","size_leaf_vector":"1"}},{"base_weights":[6.277543E-2,4.7439933E-1,-6.5245825E-1,-5.876258E-1,9.464035E-1,4.4478968E-1,-9.999599E-2,8.313554E-2,-9.869119E-2,9.9997394E-2,-8.881228E-2,-9.995436E-2,9.998246E-2],"categories":[],"categories_nodes":[],"categories_segments":[],"categories_sizes":[],"default_left":[0,0,0,0,0,0,0,0,0,0,0,0,0],"id":59,"left_children":[1,3,5,7,9,11,-1,-1,-1,-1,-1,-1,-1],"loss_changes":[2.643517E4,2.8569387E4,1.2506698E4,9.936557E3,3.8785195E3,6.3259287E3,0E0,0E0,0E0,0E0,0E0,0E0,0E0],"parents":[2147483647,0,0,1,1,2,2,3,3,4,4,5,5],"right_children":[2,4,6,8,10,12,-1,-1,-1,-1,-1,-1,-1],"split_conditions":[2.846427E-1,2.6319152E-1,2.5198656E-1,2.277991E-1,3.664031E-1,2.6193097E-1,-9.999599E-2,8.313554E-2,-9.869119E-2,9.9997394E-2,-8.881228E-2,-9.995436E-2,9.998246E-2],"split_indices":[0,2,1,0,1,2,0,0,0,0,0,0,0],"split_type":[0,0,0,0,0,0,0,0,0,0,0,0,0],"sum_hessian":[8.978911E4,5.699073E4,3.2798383E4,1.7535354E4,3.945538E4,7.888837E3,2.4909545E4,3.8504736E3,1.368488E4,3.8336363E4,1.1190139E3,2.1897595E3,5.6990776E3],"tree_param":{"num_deleted":"0","num_feature":"3","num_nodes":"13","size_leaf_vector":"1"}},{"base_weights":[-6.198169E-2,-4.731488E-1,6.5245825E-1,5.91364E-1,-9.462586E-1,-4.4478968E-1,9.999599E-2,-8.292517E-2,9.911098E-2,-9.9997394E-2,8.932265E-2,9.995436E-2,-9.998246E-2],"categories":[],"categories_nodes":[],"categories_segments":[],"categories_sizes":[],"default_left":[0,0,0,0,0,0,0,0,0,0,0,0,0],"id":60,"left_children":[1,3,5,7,9,11,-1,-1,-1,-1,-1,-1,-1],"loss_changes":[2.6376531E4,2.870339E4,1.2506698E4,9.959458E3,3.8995156E3,6.3259287E3,0E0,0E0,0E0,0E0,0E0,0E0,0E0],"parents":[2147483647,0,0,1,1,2,2,3,3,4,4,5,5],"right_children":[2,4,6,8,10,12,-1,-1,-1,-1,-1,-1,-1],"split_conditions":[2.846427E-1,2.6319152E-1,2.5198656E-1,2.277991E-1,3.664031E-1,2.6193097E-1,9.999599E-2,-8.292517E-2,9.911098E-2,-9.9997394E-2,8.932265E-2,9.995436E-2,-9.998246E-2],"split_indices":[0,2,1,0,1,2,0,0,0,0,0,0,0],"split_type":[0,0,0,0,0,0,0,0,0,0,0,0,0],"sum_hessian":[8.978911E4,5.699073E4,3.2798383E4,1.7535354E4,3.945538E4,7.888837E3,2.4909545E4,3.8504736E3,1.368488E4,3.8336363E4,1.1190139E3,2.1897595E3,5.6990776E3],"tree_param":{"num_deleted":"0","num_feature":"3","num_nodes":"13","size_leaf_vector":"1"}},{"base_weights":[6.277543E-2,4.7439933E-1,-6.5245825E-1,-5.876258E-1,9.464035E-1,4.4478968E-1,-9.999599E-2,8.313554E-2,-9.869119E-2,9.9997394E-2,-8.881228E-2,-9.995436E-2,9.998246E-2],"categories":[],"categories_nodes":[],"categories_segments":[],"categories_sizes":[],"default_left":[0,0,0,0,0,0,0,0,0,0,0,0,0],"id":61,"left_children":[1,3,5,7,9,11,-1,-1,-1,-1,-1,-1,-1],"loss_changes":[2.643517E4,2.8569387E4,1.2506698E4,9.936557E3,3.8785195E3,6.3259287E3,0E0,0E0,0E0,0E0,0E0,0E0,0E0],"parents":[2147483647,0,0,1,1,2,2,3,3,4,4,5,5],"right_children":[2,4,6,8,10,12,-1,-1,-1,-1,-1,-1,-1],"split_conditions":[2.846427E-1,2.6319152E-1,2.5198656E-1,2.277991E-1,3.664031E-1,2.6193097E-1,-9.999599E-2,8.313554E-2,-9.869119E-2,9.9997394E-2,-8.881228E-2,-9.995436E-2,9.998246E-2],"split_indices":[0,2,1,0,1,2,0,0,0,0,0,0,0],"split_type":[0,0,0,0,0,0,0,0,0,0,0,0,0],"sum_hessian":[8.978911E4,5.699073E4,3.2798383E4,1.7535354E4,3.945538E4,7.888837E3,2.4909545E4,3.8504736E3,1.368488E4,3.8336363E4,1.1190139E3,2.1897595E3,5.6990776E3],"tree_param":{"num_deleted":"0","num_feature":"3","num_nodes":"13","size_leaf_vector":"1"}},{"base_weights":[-6.373725E-2,-4.7591466E-1,6.5245825E-1,5.8237517E-1,-9.462586E-1,-4.4478968E-1,9.999599E-2,-8.292517E-2,9.79592E-2,-9.9997394E-2,8.932265E-2,9.995436E-2,-9.998246E-2],"categories":[],"categories_nodes":[],"categories_segments":[],"categories_sizes":[],"default_left":[0,0,0,0,0,0,0,0,0,0,0,0,0],"id":62,"left_children":[1,3,5,7,9,11,-1,-1,-1,-1,-1,-1,-1],"loss_changes":[2.6506314E4,2.836877E4,1.2506698E4,9.833831E3,3.8995156E3,6.3259287E3,0E0,0E0,0E0,0E0,0E0,0E0,0E0],"parents":[2147483647,0,0,1,1,2,2,3,3,4,4,5,5],"right_children":[2,4,6,8,10,12,-1,-1,-1,-1,-1,-1,-1],"split_conditions":[2.846427E-1,2.6319152E-1,2.5198656E-1,2.277991E-1,3.664031E-1,2.6193097E-1,9.999599E-2,-8.292517E-2,9.79592E-2,-9.9997394E-2,8.932265E-2,9.995436E-2,-9.998246E-2],"split_indices":[0,2,1,0,1,2,0,0,0,0,0,0,0],"split_type":[0,0,0,0,0,0,0,0,0,0,0,0,0],"sum_hessian":[8.978911E4,5.699073E4,3.2798383E4,1.7535354E4,3.945538E4,7.888837E3,2.4909545E4,3.8504736E3,1.368488E4,3.8336363E4,1.1190139E3,2.1897595E3,5.6990776E3],"tree_param":{"num_deleted":"0","num_feature":"3","num_nodes":"13","size_leaf_vector":"1"}},{"base_weights":[6.438509E-2,4.7693533E-1,-6.5245825E-1,-5.793841E-1,9.464035E-1,4.4478968E-1,-9.999599E-2,8.313554E-2,-9.7635135E-2,9.9997394E-2,-8.881228E-2,-9.995436E-2,9.998246E-2],"categories":[],"categories_nodes":[],"categories_segments":[],"categories_sizes":[],"default_left":[0,0,0,0,0,0,0,0,0,0,0,0,0],"id":63,"left_children":[1,3,5,7,9,11,-1,-1,-1,-1,-1,-1,-1],"loss_changes":[2.655429E4,2.826322E4,1.2506698E4,9.821473E3,3.8785195E3,6.3259287E3,0E0,0E0,0E0,0E0,0E0,0E0,0E0],"parents":[2147483647,0,0,1,1,2,2,3,3,4,4,5,5],"right_children":[2,4,6,8,10,12,-1,-1,-1,-1,-1,-1,-1],"split_conditions":[2.846427E-1,2.6319152E-1,2.5198656E-1,2.277991E-1,3.664031E-1,2.6193097E-1,-9.999599E-2,8.313554E-2,-9.7635135E-2,9.9997394E-2,-8.881228E-2,-9.995436E-2,9.998246E-2],"split_indices":[0,2,1,0,1,2,0,0,0,0,0,0,0],"split_type":[0,0,0,0,0,0,0,0,0,0,0,0,0],"sum_hessian":[8.978911E4,5.699073E4,3.2798383E4,1.7535354E4,3.945538E4,7.888837E3,2.4909545E4,3.8504736E3,1.368488E4,3.8336363E4,1.1190139E3,2.1897595E3,5.6990776E3],"tree_param":{"num_deleted":"0","num_feature":"3","num_nodes":"13","size_leaf_vector":"1"}},{"base_weights":[-6.373725E-2,-4.7591466E-1,6.5245825E-1,5.8237517E-1,-9.462586E-1,-4.4478968E-1,9.999599E-2,-8.292517E-2,9.79592E-2,-9.9997394E-2,8.932265E-2,9.995436E-2,-9.998246E-2],"categories":[],"categories_nodes":[],"categories_segments":[],"categories_sizes":[],"default_left":[0,0,0,0,0,0,0,0,0,0,0,0,0],"id":64,"left_children":[1,3,5,7,9,11,-1,-1,-1,-1,-1,-1,-1],"loss_changes":[2.6506314E4,2.836877E4,1.2506698E4,9.833831E3,3.8995156E3,6.3259287E3,0E0,0E0,0E0,0E0,0E0,0E0,0E0],"parents":[2147483647,0,0,1,1,2,2,3,3,4,4,5,5],"right_children":[2,4,6,8,10,12,-1,-1,-1,-1,-1,-1,-1],"split_conditions":[2.846427E-1,2.6319152E-1,2.5198656E-1,2.277991E-1,3.664031E-1,2.6193097E-1,9.999599E-2,-8.292517E-2,9.79592E-2,-9.9997394E-2,8.932265E-2,9.995436E-2,-9.998246E-2],"split_indices":[0,2,1,0,1,2,0,0,0,0,0,0,0],"split_type":[0,0,0,0,0,0,0,0,0,0,0,0,0],"sum_hessian":[8.978911E4,5.699073E4,3.2798383E4,1.7535354E4,3.945538E4,7.888837E3,2.4909545E4,3.8504736E3,1.368488E4,3.8336363E4,1.1190139E3,2.1897595E3,5.6990776E3],"tree_param":{"num_deleted":"0","num_feature":"3","num_nodes":"13","size_leaf_vector":"1"}},{"base_weights":[6.277543E-2,4.7439933E-1,-6.5245825E-1,-5.876258E-1,9.464035E-1,4.4478968E-1,-9.999599E-2,8.313554E-2,-9.869119E-2,9.9997394E-2,-8.881228E-2,-9.995436E-2,9.998246E-2],"categories":[],"categories_nodes":[],"categories_segments":[],"categories_sizes":[],"default_left":[0,0,0,0,0,0,0,0,0,0,0,0,0],"id":65,"left_children":[1,3,5,7,9,11,-1,-1,-1,-1,-1,-1,-1],"loss_changes":[2.643517E4,2.8569387E4,1.2506698E4,9.936557E3,3.8785195E3,6.3259287E3,0E0,0E0,0E0,0E0,0E0,0E0,0E0],"parents":[2147483647,0,0,1,1,2,2,3,3,4,4,5,5],"right_children":[2,4,6,8,10,12,-1,-1,-1,-1,-1,-1,-1],"split_conditions":[2.846427E-1,2.6319152E-1,2.5198656E-1,2.277991E-1,3.664031E-1,2.6193097E-1,-9.999599E-2,8.313554E-2,-9.869119E-2,9.9997394E-2,-8.881228E-2,-9.995436E-2,9.998246E-2],"split_indices":[0,2,1,0,1,2,0,0,0,0,0,0,0],"split_type":[0,0,0,0,0,0,0,0,0,0,0,0,0],"sum_hessian":[8.978911E4,5.699073E4,3.2798383E4,1.7535354E4,3.945538E4,7.888837E3,2.4909545E4,3.8504736E3,1.368488E4,3.8336363E4,1.1190139E3,2.1897595E3,5.6990776E3],"tree_param":{"num_deleted":"0","num_feature":"3","num_nodes":"13","size_leaf_vector":"1"}},{"base_weights":[-6.198169E-2,-4.731488E-1,6.5245825E-1,5.91364E-1,-9.462586E-1,-4.4478968E-1,9.999599E-2,-8.292517E-2,9.911098E-2,-9.9997394E-2,8.932265E-2,9.995436E-2,-9.998246E-2],"categories":[],"categories_nodes":[],"categories_segments":[],"categories_sizes":[],"default_left":[0,0,0,0,0,0,0,0,0,0,0,0,0],"id":66,"left_children":[1,3,5,7,9,11,-1,-1,-1,-1,-1,-1,-1],"loss_changes":[2.6376531E4,2.870339E4,1.2506698E4,9.959458E3,3.8995156E3,6.3259287E3,0E0,0E0,0E0,0E0,0E0,0E0,0E0],"parents":[2147483647,0,0,1,1,2,2,3,3,4,4,5,5],"right_children":[2,4,6,8,10,12,-1,-1,-1,-1,-1,-1,-1],"split_conditions":[2.846427E-1,2.6319152E-1,2.5198656E-1,2.277991E-1,3.664031E-1,2.6193097E-1,9.999599E-2,-8.292517E-2,9.911098E-2,-9.9997394E-2,8.932265E-2,9.995436E-2,-9.998246E-2],"split_indices":[0,2,1,0,1,2,0,0,0,0,0,0,0],"split_type":[0,0,0,0,0,0,0,0,0,0,0,0,0],"sum_hessian":[8.978911E4,5.699073E4,3.2798383E4,1.7535354E4,3.945538E4,7.888837E3,2.4909545E4,3.8504736E3,1.368488E4,3.8336363E4,1.1190139E3,2.1897595E3,5.6990776E3],"tree_param":{"num_deleted":"0","num_feature":"3","num_nodes":"13","size_leaf_vector":"1"}},{"base_weights":[6.277543E-2,4.7439933E-1,-6.5245825E-1,-5.876258E-1,9.464035E-1,4.4478968E-1,-9.999599E-2,8.313554E-2,-9.869119E-2,9.9997394E-2,-8.881228E-2,-9.995436E-2,9.998246E-2],"categories":[],"categories_nodes":[],"categories_segments":[],"categories_sizes":[],"default_left":[0,0,0,0,0,0,0,0,0,0,0,0,0],"id":67,"left_children":[1,3,5,7,9,11,-1,-1,-1,-1,-1,-1,-1],"loss_changes":[2.643517E4,2.8569387E4,1.2506698E4,9.936557E3,3.8785195E3,6.3259287E3,0E0,0E0,0E0,0E0,0E0,0E0,0E0],"parents":[2147483647,0,0,1,1,2,2,3,3,4,4,5,5],"right_children":[2,4,6,8,10,12,-1,-1,-1,-1,-1,-1,-1],"split_conditions":[2.846427E-1,2.6319152E-1,2.5198656E-1,2.277991E-1,3.664031E-1,2.6193097E-1,-9.999599E-2,8.313554E-2,-9.869119E-2,9.9997394E-2,-8.881228E-2,-9.995436E-2,9.998246E-2],"split_indices":[0,2,1,0,1,2,0,0,0,0,0,0,0],"split_type":[0,0,0,0,0,0,0,0,0,0,0,0,0],"sum_hessian":[8.978911E4,5.699073E4,3.2798383E4,1.7535354E4,3.945538E4,7.888837E3,2.4909545E4,3.8504736E3,1.368488E4,3.8336363E4,1.1190139E3,2.1897595E3,5.6990776E3],"tree_param":{"num_deleted":"0","num_feature":"3","num_nodes":"13","size_leaf_vector":"1"}},{"base_weights":[-6.373725E-2,-4.7591466E-1,6.5245825E-1,5.8237517E-1,-9.462586E-1,-4.4478968E-1,9.999599E-2,-8.292517E-2,9.79592E-2,-9.9997394E-2,8.932265E-2,9.995436E-2,-9.998246E-2],"categories":[],"categories_nodes":[],"categories_segments":[],"categories_sizes":[],"default_left":[0,0,0,0,0,0,0,0,0,0,0,0,0],"id":68,"left_children":[1,3,5,7,9,11,-1,-1,-1,-1,-1,-1,-1],"loss_changes":[2.6506314E4,2.836877E4,1.2506698E4,9.833831E3,3.8995156E3,6.3259287E3,0E0,0E0,0E0,0E0,0E0,0E0,0E0],"parents":[2147483647,0,0,1,1,2,2,3,3,4,4,5,5],"right_children":[2,4,6,8,10,12,-1,-1,-1,-1,-1,-1,-1],"split_conditions":[2.846427E-1,2.6319152E-1,2.5198656E-1,2.277991E-1,3.664031E-1,2.6193097E-1,9.999599E-2,-8.292517E-2,9.79592E-2,-9.9997394E-2,8.932265E-2,9.995436E-2,-9.998246E-2],"split_indices":[0,2,1,0,1,2,0,0,0,0,0,0,0],"split_type":[0,0,0,0,0,0,0,0,0,0,0,0,0],"sum_hessian":[8.978911E4,5.699073E4,3.2798383E4,1.7535354E4,3.945538E4,7.888837E3,2.4909545E4,3.8504736E3,1.368488E4,3.8336363E4,1.1190139E3,2.1897595E3,5.6990776E3],"tree_param":{"num_deleted":"0","num_feature":"3","num_nodes":"13","size_leaf_vector":"1"}},{"base_weights":[6.438509E-2,4.7693533E-1,-6.5245825E-1,-5.793841E-1,9.464035E-1,4.4478968E-1,-9.999599E-2,8.313554E-2,-9.7635135E-2,9.9997394E-2,-8.881228E-2,-9.995436E-2,9.998246E-2],"categories":[],"categories_nodes":[],"categories_segments":[],"categories_sizes":[],"default_left":[0,0,0,0,0,0,0,0,0,0,0,0,0],"id":69,"left_children":[1,3,5,7,9,11,-1,-1,-1,-1,-1,-1,-1],"loss_changes":[2.655429E4,2.826322E4,1.2506698E4,9.821473E3,3.8785195E3,6.3259287E3,0E0,0E0,0E0,0E0,0E0,0E0,0E0],"parents":[2147483647,0,0,1,1,2,2,3,3,4,4,5,5],"right_children":[2,4,6,8,10,12,-1,-1,-1,-1,-1,-1,-1],"split_conditions":[2.846427E-1,2.6319152E-1,2.5198656E-1,2.277991E-1,3.664031E-1,2.6193097E-1,-9.999599E-2,8.313554E-2,-9.7635135E-2,9.9997394E-2,-8.881228E-2,-9.995436E-2,9.998246E-2],"split_indices":[0,2,1,0,1,2,0,0,0,0,0,0,0],"split_type":[0,0,0,0,0,0,0,0,0,0,0,0,0],"sum_hessian":[8.978911E4,5.699073E4,3.2798383E4,1.7535354E4,3.945538E4,7.888837E3,2.4909545E4,3.8504736E3,1.368488E4,3.8336363E4,1.1190139E3,2.1897595E3,5.6990776E3],"tree_param":{"num_deleted":"0","num_feature":"3","num_nodes":"13","size_leaf_vector":"1"}},{"base_weights":[-6.373725E-2,-4.7591466E-1,6.5245825E-1,5.8237517E-1,-9.462586E-1,-4.4478968E-1,9.999599E-2,-8.292517E-2,9.79592E-2,-9.9997394E-2,8.932265E-2,9.995436E-2,-9.998246E-2],"categories":[],"categories_nodes":[],"categories_segments":[],"categories_sizes":[],"default_left":[0,0,0,0,0,0,0,0,0,0,0,0,0],"id":70,"left_children":[1,3,5,7,9,11,-1,-1,-1,-1,-1,-1,-1],"loss_changes":[2.6506314E4,2.836877E4,1.2506698E4,9.833831E3,3.8995156E3,6.3259287E3,0E0,0E0,0E0,0E0,0E0,0E0,0E0],"parents":[2147483647,0,0,1,1,2,2,3,3,4,4,5,5],"right_children":[2,4,6,8,10,12,-1,-1,-1,-1,-1,-1,-1],"split_conditions":[2.846427E-1,2.6319152E-1,2.5198656E-1,2.277991E-1,3.664031E-1,2.6193097E-1,9.999599E-2,-8.292517E-2,9.79592E-2,-9.9997394E-2,8.932265E-2,9.995436E-2,-9.998246E-2],"split_indices":[0,2,1,0,1,2,0,0,0,0,0,0,0],"split_type":[0,0,0,0,0,0,0,0,0,0,0,0,0],"sum_hessian":[8.978911E4,5.699073E4,3.2798383E4,1.7535354E4,3.945538E4,7.888837E3,2.4909545E4,3.8504736E3,1.368488E4,3.8336363E4,1.1190139E3,2.1897595E3,5.6990776E3],"tree_param":{"num_deleted":"0","num_feature":"3","num_nodes":"13","size_leaf_vector":"1"}},{"base_weights":[6.277543E-2,4.7439933E-1,-6.5245825E-1,-5.876258E-1,9.464035E-1,4.4478968E-1,-9.999599E-2,8.313554E-2,-9.869119E-2,9.9997394E-2,-8.881228E-2,-9.995436E-2,9.998246E-2],"categories":[],"categories_nodes":[],"categories_segments":[],"categories_sizes":[],"default_left":[0,0,0,0,0,0,0,0,0,0,0,0,0],"id":71,"left_children":[1,3,5,7,9,11,-1,-1,-1,-1,-1,-1,-1],"loss_changes":[2.643517E4,2.8569387E4,1.2506698E4,9.936557E3,3.8785195E3,6.3259287E3,0E0,0E0,0E0,0E0,0E0,0E0,0E0],"parents":[2147483647,0,0,1,1,2,2,3,3,4,4,5,5],"right_children":[2,4,6,8,10,12,-1,-1,-1,-1,-1,-1,-1],"split_conditions":[2.846427E-1,2.6319152E-1,2.5198656E-1,2.277991E-1,3.664031E-1,2.6193097E-1,-9.999599E-2,8.313554E-2,-9.869119E-2,9.9997394E-2,-8.881228E-2,-9.995436E-2,9.998246E-2],"split_indices":[0,2,1,0,1,2,0,0,0,0,0,0,0],"split_type":[0,0,0,0,0,0,0,0,0,0,0,0,0],"sum_hessian":[8.978911E4,5.699073E4,3.2798383E4,1.7535354E4,3.945538E4,7.888837E3,2.4909545E4,3.8504736E3,1.368488E4,3.8336363E4,1.1190139E3,2.1897595E3,5.6990776E3],"tree_param":{"num_deleted":"0","num_feature":"3","num_nodes":"13","size_leaf_vector":"1"}},{"base_weights":[-6.198169E-2,-4.731488E-1,6.5245825E-1,5.91364E-1,-9.462586E-1,-4.4478968E-1,9.999599E-2,-8.292517E-2,9.911098E-2,-9.9997394E-2,8.932265E-2,9.995436E-2,-9.998246E-2],"categories":[],"categories_nodes":[],"categories_segments":[],"categories_sizes":[],"default_left":[0,0,0,0,0,0,0,0,0,0,0,0,0],"id":72,"left_children":[1,3,5,7,9,11,-1,-1,-1,-1,-1,-1,-1],"loss_changes":[2.6376531E4,2.870339E4,1.2506698E4,9.959458E3,3.8995156E3,6.3259287E3,0E0,0E0,0E0,0E0,0E0,0E0,0E0],"parents":[2147483647,0,0,1,1,2,2,3,3,4,4,5,5],"right_children":[2,4,6,8,10,12,-1,-1,-1,-1,-1,-1,-1],"split_conditions":[2.846427E-1,2.6319152E-1,2.5198656E-1,2.277991E-1,3.664031E-1,2.6193097E-1,9.999599E-2,-8.292517E-2,9.911098E-2,-9.9997394E-2,8.932265E-2,9.995436E-2,-9.998246E-2],"split_indices":[0,2,1,0,1,2,0,0,0,0,0,0,0],"split_type":[0,0,0,0,0,0,0,0,0,0,0,0,0],"sum_hessian":[8.978911E4,5.699073E4,3.2798383E4,1.7535354E4,3.945538E4,7.888837E3,2.4909545E4,3.8504736E3,1.368488E4,3.8336363E4,1.1190139E3,2.1897595E3,5.6990776E3],"tree_param":{"num_deleted":"0","num_feature":"3","num_nodes":"13","size_leaf_vector":"1"}},{"base_weights":[6.277543E-2,4.7439933E-1,-6.5245825E-1,-5.876258E-1,9.464035E-1,4.4478968E-1,-9.999599E-2,8.313554E-2,-9.869119E-2,9.9997394E-2,-8.881228E-2,-9.995436E-2,9.998246E-2],"categories":[],"categories_nodes":[],"categories_segments":[],"categories_sizes":[],"default_left":[0,0,0,0,0,0,0,0,0,0,0,0,0],"id":73,"left_children":[1,3,5,7,9,11,-1,-1,-1,-1,-1,-1,-1],"loss_changes":[2.643517E4,2.8569387E4,1.2506698E4,9.936557E3,3.8785195E3,6.3259287E3,0E0,0E0,0E0,0E0,0E0,0E0,0E0],"parents":[2147483647,0,0,1,1,2,2,3,3,4,4,5,5],"right_children":[2,4,6,8,10,12,-1,-1,-1,-1,-1,-1,-1],"split_conditions":[2.846427E-1,2.6319152E-1,2.5198656E-1,2.277991E-1,3.664031E-1,2.6193097E-1,-9.999599E-2,8.313554E-2,-9.869119E-2,9.9997394E-2,-8.881228E-2,-9.995436E-2,9.998246E-2],"split_indices":[0,2,1,0,1,2,0,0,0,0,0,0,0],"split_type":[0,0,0,0,0,0,0,0,0,0,0,0,0],"sum_hessian":[8.978911E4,5.699073E4,3.2798383E4,1.7535354E4,3.945538E4,7.888837E3,2.4909545E4,3.8504736E3,1.368488E4,3.8336363E4,1.1190139E3,2.1897595E3,5.6990776E3],"tree_param":{"num_deleted":"0","num_feature":"3","num_nodes":"13","size_leaf_vector":"1"}},{"base_weights":[-6.373725E-2,-4.7591466E-1,6.5245825E-1,5.8237517E-1,-9.462586E-1,-4.4478968E-1,9.999599E-2,-8.292517E-2,9.79592E-2,-9.9997394E-2,8.932265E-2,9.995436E-2,-9.998246E-2],"categories":[],"categories_nodes":[],"categories_segments":[],"categories_sizes":[],"default_left":[0,0,0,0,0,0,0,0,0,0,0,0,0],"id":74,"left_children":[1,3,5,7,9,11,-1,-1,-1,-1,-1,-1,-1],"loss_changes":[2.6506314E4,2.836877E4,1.2506698E4,9.833831E3,3.8995156E3,6.3259287E3,0E0,0E0,0E0,0E0,0E0,0E0,0E0],"parents":[2147483647,0,0,1,1,2,2,3,3,4,4,5,5],"right_children":[2,4,6,8,10,12,-1,-1,-1,-1,-1,-1,-1],"split_conditions":[2.846427E-1,2.6319152E-1,2.5198656E-1,2.277991E-1,3.664031E-1,2.6193097E-1,9.999599E-2,-8.292517E-2,9.79592E-2,-9.9997394E-2,8.932265E-2,9.995436E-2,-9.998246E-2],"split_indices":[0,2,1,0,1,2,0,0,0,0,0,0,0],"split_type":[0,0,0,0,0,0,0,0,0,0,0,0,0],"sum_hessian":[8.978911E4,5.699073E4,3.2798383E4,1.7535354E4,3.945538E4,7.888837E3,2.4909545E4,3.8504736E3,1.368488E4,3.8336363E4,1.1190139E3,2.1897595E3,5.6990776E3],"tree_param":{"num_deleted":"0","num_feature":"3","num_nodes":"13","size_leaf_vector":"1"}},{"base_weights":[6.1679255E-2,4.726723E-1,-6.5245825E-1,-5.8615017E-1,9.432531E-1,4.4478968E-1,-9.999599E-2,8.0054834E-2,-9.7635135E-2,9.9997394E-2,-9.991072E-2,-9.995436E-2,9.998246E-2],"categories":[],"categories_nodes":[],"categories_segments":[],"categories_sizes":[],"default_left":[0,0,0,0,0,0,0,0,0,0,0,0,0],"id":75,"left_children":[1,3,5,7,9,11,-1,-1,-1,-1,-1,-1,-1],"loss_changes":[2.6354203E4,2.8397336E4,1.2506698E4,9.489551E3,4.348E3,6.3259287E3,0E0,0E0,0E0,0E0,0E0,0E0,0E0],"parents":[2147483647,0,0,1,1,2,2,3,3,4,4,5,5],"right_children":[2,4,6,8,10,12,-1,-1,-1,-1,-1,-1,-1],"split_conditions":[2.846427E-1,2.6319152E-1,2.5198656E-1,2.277991E-1,3.664031E-1,2.6193097E-1,-9.999599E-2,8.0054834E-2,-9.7635135E-2,9.9997394E-2,-9.991072E-2,-9.995436E-2,9.998246E-2],"split_indices":[0,2,1,0,1,2,0,0,0,0,0,0,0],"split_type":[0,0,0,0,0,0,0,0,0,0,0,0,0],"sum_hessian":[8.978911E4,5.699073E4,3.2798383E4,1.7535354E4,3.945538E4,7.888837E3,2.4909545E4,3.8504736E3,1.368488E4,3.8336363E4,1.1190139E3,2.1897595E3,5.6990776E3],"tree_param":{"num_deleted":"0","num_feature":"3","num_nodes":"13","size_leaf_vector":"1"}},{"base_weights":[-6.373725E-2,-4.7591466E-1,6.5245825E-1,5.8237517E-1,-9.462586E-1,-4.4478968E-1,9.999599E-2,-8.292517E-2,9.79592E-2,-9.9997394E-2,8.932265E-2,9.995436E-2,-9.998246E-2],"categories":[],"categories_nodes":[],"categories_segments":[],"categories_sizes":[],"default_left":[0,0,0,0,0,0,0,0,0,0,0,0,0],"id":76,"left_children":[1,3,5,7,9,11,-1,-1,-1,-1,-1,-1,-1],"loss_changes":[2.6506314E4,2.836877E4,1.2506698E4,9.833831E3,3.8995156E3,6.3259287E3,0E0,0E0,0E0,0E0,0E0,0E0,0E0],"parents":[2147483647,0,0,1,1,2,2,3,3,4,4,5,5],"right_children":[2,4,6,8,10,12,-1,-1,-1,-1,-1,-1,-1],"split_conditions":[2.846427E-1,2.6319152E-1,2.5198656E-1,2.277991E-1,3.664031E-1,2.6193097E-1,9.999599E-2,-8.292517E-2,9.79592E-2,-9.9997394E-2,8.932265E-2,9.995436E-2,-9.998246E-2],"split_indices":[0,2,1,0,1,2,0,0,0,0,0,0,0],"split_type":[0,0,0,0,0,0,0,0,0,0,0,0,0],"sum_hessian":[8.978911E4,5.699073E4,3.2798383E4,1.7535354E4,3.945538E4,7.888837E3,2.4909545E4,3.8504736E3,1.368488E4,3.8336363E4,1.1190139E3,2.1897595E3,5.6990776E3],"tree_param":{"num_deleted":"0","num_feature":"3","num_nodes":"13","size_leaf_vector":"1"}},{"base_weights":[6.4056404E-2,4.7641748E-1,-6.5245825E-1,-5.8106697E-1,9.464035E-1,4.4478968E-1,-9.999599E-2,8.612187E-2,-9.869119E-2,9.9997394E-2,-8.881228E-2,-9.995436E-2,9.998246E-2],"categories":[],"categories_nodes":[],"categories_segments":[],"categories_sizes":[],"default_left":[0,0,0,0,0,0,0,0,0,0,0,0,0],"id":77,"left_children":[1,3,5,7,9,11,-1,-1,-1,-1,-1,-1,-1],"loss_changes":[2.6529943E4,2.8325602E4,1.2506698E4,1.0265654E4,3.8785195E3,6.3259287E3,0E0,0E0,0E0,0E0,0E0,0E0,0E0],"parents":[2147483647,0,0,1,1,2,2,3,3,4,4,5,5],"right_children":[2,4,6,8,10,12,-1,-1,-1,-1,-1,-1,-1],"split_conditions":[2.846427E-1,2.6319152E-1,2.5198656E-1,2.277991E-1,3.664031E-1,2.6193097E-1,-9.999599E-2,8.612187E-2,-9.869119E-2,9.9997394E-2,-8.881228E-2,-9.995436E-2,9.998246E-2],"split_indices":[0,2,1,0,1,2,0,0,0,0,0,0,0],"split_type":[0,0,0,0,0,0,0,0,0,0,0,0,0],"sum_hessian":[8.978911E4,5.699073E4,3.2798383E4,1.7535354E4,3.945538E4,7.888837E3,2.4909545E4,3.8504736E3,1.368488E4,3.8336363E4,1.1190139E3,2.1897595E3,5.6990776E3],"tree_param":{"num_deleted":"0","num_feature":"3","num_nodes":"13","size_leaf_vector":"1"}},{"base_weights":[-6.198169E-2,-4.731488E-1,6.5245825E-1,5.91364E-1,-9.462586E-1,-4.4478968E-1,9.999599E-2,-8.292517E-2,9.911098E-2,-9.9997394E-2,8.932265E-2,9.995436E-2,-9.998246E-2],"categories":[],"categories_nodes":[],"categories_segments":[],"categories_sizes":[],"default_left":[0,0,0,0,0,0,0,0,0,0,0,0,0],"id":78,"left_children":[1,3,5,7,9,11,-1,-1,-1,-1,-1,-1,-1],"loss_changes":[2.6376531E4,2.870339E4,1.2506698E4,9.959458E3,3.8995156E3,6.3259287E3,0E0,0E0,0E0,0E0,0E0,0E0,0E0],"parents":[2147483647,0,0,1,1,2,2,3,3,4,4,5,5],"right_children":[2,4,6,8,10,12,-1,-1,-1,-1,-1,-1,-1],"split_conditions":[2.846427E-1,2.6319152E-1,2.5198656E-1,2.277991E-1,3.664031E-1,2.6193097E-1,9.999599E-2,-8.292517E-2,9.911098E-2,-9.9997394E-2,8.932265E-2,9.995436E-2,-9.998246E-2],"split_indices":[0,2,1,0,1,2,0,0,0,0,0,0,0],"split_type":[0,0,0,0,0,0,0,0,0,0,0,0,0],"sum_hessian":[8.978911E4,5.699073E4,3.2798383E4,1.7535354E4,3.945538E4,7.888837E3,2.4909545E4,3.8504736E3,1.368488E4,3.8336363E4,1.1190139E3,2.1897595E3,5.6990776E3],"tree_param":{"num_deleted":"0","num_feature":"3","num_nodes":"13","size_leaf_vector":"1"}},{"base_weights":[6.1453994E-2,4.7231743E-1,-6.5245825E-1,-5.943919E-1,9.464035E-1,4.4478968E-1,-9.999599E-2,8.0054834E-2,-9.869119E-2,9.9997394E-2,-8.881228E-2,-9.995436E-2,9.998246E-2],"categories":[],"categories_nodes":[],"categories_segments":[],"categories_sizes":[],"default_left":[0,0,0,0,0,0,0,0,0,0,0,0,0],"id":79,"left_children":[1,3,5,7,9,11,-1,-1,-1,-1,-1,-1,-1],"loss_changes":[2.633758E4,2.8821965E4,1.2506698E4,9.602679E3,3.8785195E3,6.3259287E3,0E0,0E0,0E0,0E0,0E0,0E0,0E0],"parents":[2147483647,0,0,1,1,2,2,3,3,4,4,5,5],"right_children":[2,4,6,8,10,12,-1,-1,-1,-1,-1,-1,-1],"split_conditions":[2.846427E-1,2.6319152E-1,2.5198656E-1,2.277991E-1,3.664031E-1,2.6193097E-1,-9.999599E-2,8.0054834E-2,-9.869119E-2,9.9997394E-2,-8.881228E-2,-9.995436E-2,9.998246E-2],"split_indices":[0,2,1,0,1,2,0,0,0,0,0,0,0],"split_type":[0,0,0,0,0,0,0,0,0,0,0,0,0],"sum_hessian":[8.978911E4,5.699073E4,3.2798383E4,1.7535354E4,3.945538E4,7.888837E3,2.4909545E4,3.8504736E3,1.368488E4,3.8336363E4,1.1190139E3,2.1897595E3,5.6990776E3],"tree_param":{"num_deleted":"0","num_feature":"3","num_nodes":"13","size_leaf_vector":"1"}},{"base_weights":[-6.373725E-2,-4.7591466E-1,6.5245825E-1,5.8237517E-1,-9.462586E-1,-4.4478968E-1,9.999599E-2,-8.292517E-2,9.79592E-2,-9.9997394E-2,8.932265E-2,9.995436E-2,-9.998246E-2],"categories":[],"categories_nodes":[],"categories_segments":[],"categories_sizes":[],"default_left":[0,0,0,0,0,0,0,0,0,0,0,0,0],"id":80,"left_children":[1,3,5,7,9,11,-1,-1,-1,-1,-1,-1,-1],"loss_changes":[2.6506314E4,2.836877E4,1.2506698E4,9.833831E3,3.8995156E3,6.3259287E3,0E0,0E0,0E0,0E0,0E0,0E0,0E0],"parents":[2147483647,0,0,1,1,2,2,3,3,4,4,5,5],"right_children":[2,4,6,8,10,12,-1,-1,-1,-1,-1,-1,-1],"split_conditions":[2.846427E-1,2.6319152E-1,2.5198656E-1,2.277991E-1,3.664031E-1,2.6193097E-1,9.999599E-2,-8.292517E-2,9.79592E-2,-9.9997394E-2,8.932265E-2,9.995436E-2,-9.998246E-2],"split_indices":[0,2,1,0,1,2,0,0,0,0,0,0,0],"split_type":[0,0,0,0,0,0,0,0,0,0,0,0,0],"sum_hessian":[8.978911E4,5.699073E4,3.2798383E4,1.7535354E4,3.945538E4,7.888837E3,2.4909545E4,3.8504736E3,1.368488E4,3.8336363E4,1.1190139E3,2.1897595E3,5.6990776E3],"tree_param":{"num_deleted":"0","num_feature":"3","num_nodes":"13","size_leaf_vector":"1"}},{"base_weights":[6.438509E-2,4.7693533E-1,-6.5245825E-1,-5.793841E-1,9.464035E-1,4.4478968E-1,-9.999599E-2,8.313554E-2,-9.7635135E-2,9.9997394E-2,-8.881228E-2,-9.995436E-2,9.998246E-2],"categories":[],"categories_nodes":[],"categories_segments":[],"categories_sizes":[],"default_left":[0,0,0,0,0,0,0,0,0,0,0,0,0],"id":81,"left_children":[1,3,5,7,9,11,-1,-1,-1,-1,-1,-1,-1],"loss_changes":[2.655429E4,2.826322E4,1.2506698E4,9.821473E3,3.8785195E3,6.3259287E3,0E0,0E0,0E0,0E0,0E0,0E0,0E0],"parents":[2147483647,0,0,1,1,2,2,3,3,4,4,5,5],"right_children":[2,4,6,8,10,12,-1,-1,-1,-1,-1,-1,-1],"split_conditions":[2.846427E-1,2.6319152E-1,2.5198656E-1,2.277991E-1,3.664031E-1,2.6193097E-1,-9.999599E-2,8.313554E-2,-9.7635135E-2,9.9997394E-2,-8.881228E-2,-9.995436E-2,9.998246E-2],"split_indices":[0,2,1,0,1,2,0,0,0,0,0,0,0],"split_type":[0,0,0,0,0,0,0,0,0,0,0,0,0],"sum_hessian":[8.978911E4,5.699073E4,3.2798383E4,1.7535354E4,3.945538E4,7.888837E3,2.4909545E4,3.8504736E3,1.368488E4,3.8336363E4,1.1190139E3,2.1897595E3,5.6990776E3],"tree_param":{"num_deleted":"0","num_feature":"3","num_nodes":"13","size_leaf_vector":"1"}},{"base_weights":[-6.373725E-2,-4.7591466E-1,6.5245825E-1,5.8237517E-1,-9.462586E-1,-4.4478968E-1,9.999599E-2,-8.292517E-2,9.79592E-2,-9.9997394E-2,8.932265E-2,9.995436E-2,-9.998246E-2],"categories":[],"categories_nodes":[],"categories_segments":[],"categories_sizes":[],"default_left":[0,0,0,0,0,0,0,0,0,0,0,0,0],"id":82,"left_children":[1,3,5,7,9,11,-1,-1,-1,-1,-1,-1,-1],"loss_changes":[2.6506314E4,2.836877E4,1.2506698E4,9.833831E3,3.8995156E3,6.3259287E3,0E0,0E0,0E0,0E0,0E0,0E0,0E0],"parents":[2147483647,0,0,1,1,2,2,3,3,4,4,5,5],"right_children":[2,4,6,8,10,12,-1,-1,-1,-1,-1,-1,-1],"split_conditions":[2.846427E-1,2.6319152E-1,2.5198656E-1,2.277991E-1,3.664031E-1,2.6193097E-1,9.999599E-2,-8.292517E-2,9.79592E-2,-9.9997394E-2,8.932265E-2,9.995436E-2,-9.998246E-2],"split_indices":[0,2,1,0,1,2,0,0,0,0,0,0,0],"split_type":[0,0,0,0,0,0,0,0,0,0,0,0,0],"sum_hessian":[8.978911E4,5.699073E4,3.2798383E4,1.7535354E4,3.945538E4,7.888837E3,2.4909545E4,3.8504736E3,1.368488E4,3.8336363E4,1.1190139E3,2.1897595E3,5.6990776E3],"tree_param":{"num_deleted":"0","num_feature":"3","num_nodes":"13","size_leaf_vector":"1"}},{"base_weights":[6.277543E-2,4.7439933E-1,-6.5245825E-1,-5.876258E-1,9.464035E-1,4.4478968E-1,-9.999599E-2,8.313554E-2,-9.869119E-2,9.9997394E-2,-8.881228E-2,-9.995436E-2,9.998246E-2],"categories":[],"categories_nodes":[],"categories_segments":[],"categories_sizes":[],"default_left":[0,0,0,0,0,0,0,0,0,0,0,0,0],"id":83,"left_children":[1,3,5,7,9,11,-1,-1,-1,-1,-1,-1,-1],"loss_changes":[2.643517E4,2.8569387E4,1.2506698E4,9.936557E3,3.8785195E3,6.3259287E3,0E0,0E0,0E0,0E0,0E0,0E0,0E0],"parents":[2147483647,0,0,1,1,2,2,3,3,4,4,5,5],"right_children":[2,4,6,8,10,12,-1,-1,-1,-1,-1,-1,-1],"split_conditions":[2.846427E-1,2.6319152E-1,2.5198656E-1,2.277991E-1,3.664031E-1,2.6193097E-1,-9.999599E-2,8.313554E-2,-9.869119E-2,9.9997394E-2,-8.881228E-2,-9.995436E-2,9.998246E-2],"split_indices":[0,2,1,0,1,2,0,0,0,0,0,0,0],"split_type":[0,0,0,0,0,0,0,0,0,0,0,0,0],"sum_hessian":[8.978911E4,5.699073E4,3.2798383E4,1.7535354E4,3.945538E4,7.888837E3,2.4909545E4,3.8504736E3,1.368488E4,3.8336363E4,1.1190139E3,2.1897595E3,5.6990776E3],"tree_param":{"num_deleted":"0","num_feature":"3","num_nodes":"13","size_leaf_vector":"1"}},{"base_weights":[-6.198169E-2,-4.731488E-1,6.5245825E-1,5.91364E-1,-9.462586E-1,-4.4478968E-1,9.999599E-2,-8.292517E-2,9.911098E-2,-9.9997394E-2,8.932265E-2,9.995436E-2,-9.998246E-2],"categories":[],"categories_nodes":[],"categories_segments":[],"categories_sizes":[],"default_left":[0,0,0,0,0,0,0,0,0,0,0,0,0],"id":84,"left_children":[1,3,5,7,9,11,-1,-1,-1,-1,-1,-1,-1],"loss_changes":[2.6376531E4,2.870339E4,1.2506698E4,9.959458E3,3.8995156E3,6.3259287E3,0E0,0E0,0E0,0E0,0E0,0E0,0E0],"parents":[2147483647,0,0,1,1,2,2,3,3,4,4,5,5],"right_children":[2,4,6,8,10,12,-1,-1,-1,-1,-1,-1,-1],"split_conditions":[2.846427E-1,2.6319152E-1,2.5198656E-1,2.277991E-1,3.664031E-1,2.6193097E-1,9.999599E-2,-8.292517E-2,9.911098E-2,-9.9997394E-2,8.932265E-2,9.995436E-2,-9.998246E-2],"split_indices":[0,2,1,0,1,2,0,0,0,0,0,0,0],"split_type":[0,0,0,0,0,0,0,0,0,0,0,0,0],"sum_hessian":[8.978911E4,5.699073E4,3.2798383E4,1.7535354E4,3.945538E4,7.888837E3,2.4909545E4,3.8504736E3,1.368488E4,3.8336363E4,1.1190139E3,2.1897595E3,5.6990776E3],"tree_param":{"num_deleted":"0","num_feature":"3","num_nodes":"13","size_leaf_vector":"1"}},{"base_weights":[6.277543E-2,4.7439933E-1,-6.5245825E-1,-5.876258E-1,9.464035E-1,4.4478968E-1,-9.999599E-2,8.313554E-2,-9.869119E-2,9.9997394E-2,-8.881228E-2,-9.995436E-2,9.998246E-2],"categories":[],"categories_nodes":[],"categories_segments":[],"categories_sizes":[],"default_left":[0,0,0,0,0,0,0,0,0,0,0,0,0],"id":85,"left_children":[1,3,5,7,9,11,-1,-1,-1,-1,-1,-1,-1],"loss_changes":[2.643517E4,2.8569387E4,1.2506698E4,9.936557E3,3.8785195E3,6.3259287E3,0E0,0E0,0E0,0E0,0E0,0E0,0E0],"parents":[2147483647,0,0,1,1,2,2,3,3,4,4,5,5],"right_children":[2,4,6,8,10,12,-1,-1,-1,-1,-1,-1,-1],"split_conditions":[2.846427E-1,2.6319152E-1,2.5198656E-1,2.277991E-1,3.664031E-1,2.6193097E-1,-9.999599E-2,8.313554E-2,-9.869119E-2,9.9997394E-2,-8.881228E-2,-9.995436E-2,9.998246E-2],"split_indices":[0,2,1,0,1,2,0,0,0,0,0,0,0],"split_type":[0,0,0,0,0,0,0,0,0,0,0,0,0],"sum_hessian":[8.978911E4,5.699073E4,3.2798383E4,1.7535354E4,3.945538E4,7.888837E3,2.4909545E4,3.8504736E3,1.368488E4,3.8336363E4,1.1190139E3,2.1897595E3,5.6990776E3],"tree_param":{"num_deleted":"0","num_feature":"3","num_nodes":"13","size_leaf_vector":"1"}},{"base_weights":[-6.373725E-2,-4.7591466E-1,6.5245825E-1,5.8237517E-1,-9.462586E-1,-4.4478968E-1,9.999599E-2,-8.292517E-2,9.79592E-2,-9.9997394E-2,8.932265E-2,9.995436E-2,-9.998246E-2],"categories":[],"categories_nodes":[],"categories_segments":[],"categories_sizes":[],"default_left":[0,0,0,0,0,0,0,0,0,0,0,0,0],"id":86,"left_children":[1,3,5,7,9,11,-1,-1,-1,-1,-1,-1,-1],"loss_changes":[2.6506314E4,2.836877E4,1.2506698E4,9.833831E3,3.8995156E3,6.3259287E3,0E0,0E0,0E0,0E0,0E0,0E0,0E0],"parents":[2147483647,0,0,1,1,2,2,3,3,4,4,5,5],"right_children":[2,4,6,8,10,12,-1,-1,-1,-1,-1,-1,-1],"split_conditions":[2.846427E-1,2.6319152E-1,2.5198656E-1,2.277991E-1,3.664031E-1,2.6193097E-1,9.999599E-2,-8.292517E-2,9.79592E-2,-9.9997394E-2,8.932265E-2,9.995436E-2,-9.998246E-2],"split_indices":[0,2,1,0,1,2,0,0,0,0,0,0,0],"split_type":[0,0,0,0,0,0,0,0,0,0,0,0,0],"sum_hessian":[8.978911E4,5.699073E4,3.2798383E4,1.7535354E4,3.945538E4,7.888837E3,2.4909545E4,3.8504736E3,1.368488E4,3.8336363E4,1.1190139E3,2.1897595E3,5.6990776E3],"tree_param":{"num_deleted":"0","num_feature":"3","num_nodes":"13","size_leaf_vector":"1"}},{"base_weights":[6.438509E-2,4.7693533E-1,-6.5245825E-1,-5.793841E-1,9.464035E-1,4.4478968E-1,-9.999599E-2,8.313554E-2,-9.7635135E-2,9.9997394E-2,-8.881228E-2,-9.995436E-2,9.998246E-2],"categories":[],"categories_nodes":[],"categories_segments":[],"categories_sizes":[],"default_left":[0,0,0,0,0,0,0,0,0,0,0,0,0],"id":87,"left_children":[1,3,5,7,9,11,-1,-1,-1,-1,-1,-1,-1],"loss_changes":[2.655429E4,2.826322E4,1.2506698E4,9.821473E3,3.8785195E3,6.3259287E3,0E0,0E0,0E0,0E0,0E0,0E0,0E0],"parents":[2147483647,0,0,1,1,2,2,3,3,4,4,5,5],"right_children":[2,4,6,8,10,12,-1,-1,-1,-1,-1,-1,-1],"split_conditions":[2.846427E-1,2.6319152E-1,2.5198656E-1,2.277991E-1,3.664031E-1,2.6193097E-1,-9.999599E-2,8.313554E-2,-9.7635135E-2,9.9997394E-2,-8.881228E-2,-9.995436E-2,9.998246E-2],"split_indices":[0,2,1,0,1,2,0,0,0,0,0,0,0],"split_type":[0,0,0,0,0,0,0,0,0,0,0,0,0],"sum_hessian":[8.978911E4,5.699073E4,3.2798383E4,1.7535354E4,3.945538E4,7.888837E3,2.4909545E4,3.8504736E3,1.368488E4,3.8336363E4,1.1190139E3,2.1897595E3,5.6990776E3],"tree_param":{"num_deleted":"0","num_feature":"3","num_nodes":"13","size_leaf_vector":"1"}},{"base_weights":[-6.373725E-2,-4.7591466E-1,6.5245825E-1,5.8237517E-1,-9.462586E-1,-4.4478968E-1,9.999599E-2,-8.292517E-2,9.79592E-2,-9.9997394E-2,8.932265E-2,9.995436E-2,-9.998246E-2],"categories":[],"categories_nodes":[],"categories_segments":[],"categories_sizes":[],"default_left":[0,0,0,0,0,0,0,0,0,0,0,0,0],"id":88,"left_children":[1,3,5,7,9,11,-1,-1,-1,-1,-1,-1,-1],"loss_changes":[2.6506314E4,2.836877E4,1.2506698E4,9.833831E3,3.8995156E3,6.3259287E3,0E0,0E0,0E0,0E0,0E0,0E0,0E0],"parents":[2147483647,0,0,1,1,2,2,3,3,4,4,5,5],"right_children":[2,4,6,8,10,12,-1,-1,-1,-1,-1,-1,-1],"split_conditions":[2.846427E-1,2.6319152E-1,2.5198656E-1,2.277991E-1,3.664031E-1,2.6193097E-1,9.999599E-2,-8.292517E-2,9.79592E-2,-9.9997394E-2,8.932265E-2,9.995436E-2,-9.998246E-2],"split_indices":[0,2,1,0,1,2,0,0,0,0,0,0,0],"split_type":[0,0,0,0,0,0,0,0,0,0,0,0,0],"sum_hessian":[8.978911E4,5.699073E4,3.2798383E4,1.7535354E4,3.945538E4,7.888837E3,2.4909545E4,3.8504736E3,1.368488E4,3.8336363E4,1.1190139E3,2.1897595E3,5.6990776E3],"tree_param":{"num_deleted":"0","num_feature":"3","num_nodes":"13","size_leaf_vector":"1"}},{"base_weights":[6.277543E-2,4.7439933E-1,-6.5245825E-1,-5.876258E-1,9.464035E-1,4.4478968E-1,-9.999599E-2,8.313554E-2,-9.869119E-2,9.9997394E-2,-8.881228E-2,-9.995436E-2,9.998246E-2],"categories":[],"categories_nodes":[],"categories_segments":[],"categories_sizes":[],"default_left":[0,0,0,0,0,0,0,0,0,0,0,0,0],"id":89,"left_children":[1,3,5,7,9,11,-1,-1,-1,-1,-1,-1,-1],"loss_changes":[2.643517E4,2.8569387E4,1.2506698E4,9.936557E3,3.8785195E3,6.3259287E3,0E0,0E0,0E0,0E0,0E0,0E0,0E0],"parents":[2147483647,0,0,1,1,2,2,3,3,4,4,5,5],"right_children":[2,4,6,8,10,12,-1,-1,-1,-1,-1,-1,-1],"split_conditions":[2.846427E-1,2.6319152E-1,2.5198656E-1,2.277991E-1,3.664031E-1,2.6193097E-1,-9.999599E-2,8.313554E-2,-9.869119E-2,9.9997394E-2,-8.881228E-2,-9.995436E-2,9.998246E-2],"split_indices":[0,2,1,0,1,2,0,0,0,0,0,0,0],"split_type":[0,0,0,0,0,0,0,0,0,0,0,0,0],"sum_hessian":[8.978911E4,5.699073E4,3.2798383E4,1.7535354E4,3.945538E4,7.888837E3,2.4909545E4,3.8504736E3,1.368488E4,3.8336363E4,1.1190139E3,2.1897595E3,5.6990776E3],"tree_param":{"num_deleted":"0","num_feature":"3","num_nodes":"13","size_leaf_vector":"1"}},{"base_weights":[-6.198169E-2,-4.731488E-1,6.5245825E-1,5.91364E-1,-9.462586E-1,-4.4478968E-1,9.999599E-2,-8.292517E-2,9.911098E-2,-9.9997394E-2,8.932265E-2,9.995436E-2,-9.998246E-2],"categories":[],"categories_nodes":[],